Aaron_Eckhart -1.6032251119613647 0.281404048204422 -1.7663052082061768 -1.2427061796188354 0.37860462069511414 -0.030646760016679764 -0.7185887098312378 1.4520128965377808 0.6813564896583557 -2.748244047164917 -0.09539416432380676 0.3926265239715576 1.4853750467300415 -1.1455031633377075 0.7062199115753174 0.7228066325187683 0.023553229868412018 0.4593345522880554 -0.18872198462486267 1.6800479888916016 0.05183839797973633 1.4127516746520996 -1.76052725315094 1.0611562728881836 -0.7401301264762878 1.5562266111373901 -1.871264934539795 0.16536247730255127 2.014174222946167 1.3592052459716797 -0.6912668347358704 -0.5103550553321838 -0.324545681476593 1.265283465385437 0.5865420699119568 1.0595951080322266 -0.3340219557285309 -1.3614214658737183 -0.572381317615509 -0.1933450549840927 1.237473487854004 0.17192544043064117 -0.8259437084197998 0.866398811340332 0.8603030443191528 -1.6664838790893555 3.1377081871032715 -0.1486259400844574 -0.3829730153083801 -1.3363962173461914 -0.060734234750270844 1.3508871793746948 -2.463315010070801 -0.05595160275697708 -2.1435139179229736 0.007641940843313932 -0.759917140007019 -0.38314664363861084 0.879507303237915 3.275053024291992 1.16677725315094 -0.423595130443573 -0.49078109860420227 -0.26728200912475586 1.8137530088424683 0.41605281829833984 0.5910515785217285 1.847430944442749 1.921639323234558 -2.1639726161956787 1.1371705532073975 0.1776224970817566 -1.5424805879592896 1.4004970788955688 1.268425703048706 0.47371554374694824 1.0417450666427612 -0.6714083552360535 0.22672075033187866 -0.5815925598144531 -1.5331716537475586 -0.13797438144683838 -0.7905311584472656 0.4225538671016693 0.5763311386108398 -0.7509766817092896 0.9559668302536011 -0.5365204215049744 -0.7454777956008911 -0.08976510167121887 -0.40389642119407654 0.3646916151046753 -0.0625603049993515 -1.9979960918426514 -2.287912607192993 1.2267189025878906 -0.32366201281547546 -0.594405472278595 -0.11460409313440323 1.3739737272262573 0.29871630668640137 0.09653454273939133 -0.3662700653076172 0.998896062374115 -1.9210063219070435 0.9686739444732666 -0.28080257773399353 -2.122810125350952 -0.25018447637557983 0.4565352201461792 -0.08653035759925842 -0.19727279245853424 1.2540464401245117 -1.8174514770507812 2.2308738231658936 -0.7604935169219971 0.06563743948936462 0.4537550210952759 1.1594208478927612 1.1055063009262085 1.2457144260406494 2.4983737468719482 0.29839271306991577 0.4005129337310791 -0.8137167692184448 -0.00691232830286026 -0.3767058849334717 -0.1485375463962555
Aaron_Guiel -0.6982756853103638 0.2641560137271881 -2.3346245288848877 0.7311288714408875 2.031756639480591 -0.5243381261825562 1.8982137441635132 -0.23362523317337036 0.7894387245178223 0.5620686411857605 0.20252060890197754 -0.7837757468223572 -1.2814728021621704 -0.5796427726745605 0.8822135925292969 0.11756207048892975 -0.5369396209716797 -0.5404053330421448 -0.7935607433319092 -0.6352196335792542 0.7159593105316162 0.5497689843177795 -0.12769216299057007 0.05103535205125809 1.4592773914337158 0.5392202734947205 0.04978378117084503 -0.7169092297554016 -1.066163420677185 -0.378873735666275 0.49926701188087463 0.31509873270988464 -1.0677236318588257 1.088325023651123 0.6982995271682739 -1.5847618579864502 0.7312566041946411 -1.60369873046875 0.2509186863899231 -2.766669750213623 -2.1092562675476074 0.6205306649208069 -0.8868706226348877 -0.9461137056350708 -0.8422421216964722 -1.449959397315979 -0.5860357880592346 0.8604365587234497 -0.17817918956279755 2.5843937397003174 0.38762176036834717 0.5077380537986755 -0.2735237181186676 -0.32745739817619324 0.5797553062438965 -1.374082088470459 1.3845088481903076 -0.1363852471113205 -1.2048364877700806 -0.48346880078315735 -1.5701026916503906 -0.32620710134506226 0.7969284057617188 0.6575607657432556 1.122200608253479 -0.6591050028800964 -1.447740077972412 0.9659784436225891 -0.8734368085861206 -0.40552979707717896 1.48516845703125 -1.9471818208694458 -1.1660633087158203 -0.8617451786994934 -0.09599378705024719 -0.6760576963424683 0.3753123879432678 0.28855639696121216 -0.5131705403327942 -0.21490171551704407 -1.2321434020996094 1.1420434713363647 -0.35225382447242737 -0.8281582593917847 -0.7730875015258789 1.5655289888381958 -0.48250138759613037 0.4090158939361572 -0.14804768562316895 -0.41851919889450073 0.9298362731933594 -0.24312974512577057 -0.21067871153354645 0.4805237352848053 1.2176727056503296 0.38698169589042664 -0.9006716012954712 0.41049888730049133 -0.8285232186317444 0.4477779269218445 0.3028048872947693 -0.054282043129205704 -0.11098803579807281 -1.4825886487960815 -0.45853191614151 -1.3696284294128418 0.08618263900279999 -1.1620486974716187 0.2600685656070709 -0.44086071848869324 -2.051654577255249 -0.42598068714141846 1.6644591093063354 -0.11896464228630066 1.1131645441055298 -0.7647926807403564 0.25818178057670593 0.38479435443878174 0.5092560052871704 2.304652452468872 -0.38048720359802246 -0.31758594512939453 1.1154484748840332 0.10175734013319016 0.19969478249549866 -0.18344396352767944 0.6978386640548706 0.7457872629165649
Aaron_Patterson -0.3537653684616089 -0.017018944025039673 0.9114430546760559 -1.0177675485610962 1.0876582860946655 -1.7162407636642456 -1.0510200262069702 -0.5347543358802795 0.3476957082748413 0.9839198589324951 -1.8080494403839111 0.1332775503396988 0.7546705007553101 -1.8401391506195068 0.46522772312164307 -0.16456332802772522 0.20592258870601654 -0.9756654500961304 0.0100589320063591 -1.6899433135986328 0.5092577934265137 0.25894248485565186 -0.7323271632194519 2.0291497707366943 0.7432959675788879 -0.26429685950279236 0.45994386076927185 -0.34648558497428894 0.8341817259788513 1.0545212030410767 0.18921664357185364 -0.889518678188324 0.8761215806007385 -0.2913447916507721 0.4973853826522827 0.5087785124778748 1.1158411502838135 -1.9318575859069824 0.07021830976009369 -1.3118878602981567 0.2855498790740967 1.4946682453155518 -0.1824263036251068 2.5015006065368652 1.110518455505371 0.37618109583854675 -0.714726448059082 0.1381259560585022 -1.1648427248001099 -0.1585349440574646 0.6684486865997314 0.9255357980728149 -1.913419485092163 -1.1378093957901 -0.6408423781394958 0.7318899631500244 1.2901743650436401 -2.8587310314178467 0.06946632266044617 0.46856775879859924 0.9968028664588928 -1.4730052947998047 -0.07491041719913483 -1.1599571704864502 -1.0571573972702026 1.1450836658477783 -1.1516273021697998 -0.17976000905036926 -1.1567577123641968 -1.3565374612808228 0.07253387570381165 -0.10439977049827576 -1.5344051122665405 -1.7492097616195679 2.3592731952667236 -0.636223554611206 -1.1391326189041138 0.4454529881477356 -0.6401079893112183 -0.9372329115867615 -0.7140202522277832 2.074511766433716 -0.5742176175117493 1.1580851078033447 0.3696584105491638 -0.6166582107543945 -0.0010113921016454697 -0.3344550132751465 -1.1954758167266846 0.4490183889865875 -1.6001068353652954 1.4447004795074463 0.7834523320198059 0.7474556565284729 0.4561425447463989 0.06622041761875153 -0.024201028048992157 -1.1104929447174072 -1.0222389698028564 0.4143643379211426 0.9010897278785706 -0.4627464711666107 -0.556472897529602 -1.9603865146636963 -1.5771713256835938 -0.5023671984672546 -3.061339855194092 0.459993839263916 -0.47766101360321045 0.6759490966796875 -1.1057672500610352 -1.413370966911316 1.4836759567260742 -0.9690150618553162 0.6046872735023499 1.2361767292022705 0.6341425180435181 -1.0898514986038208 -1.098442554473877 0.7331280708312988 1.7624977827072144 -1.947092056274414 0.526829719543457 -0.5688883662223816 0.6891570687294006 -1.262776255607605 -0.012214782647788525 -0.7143920660018921
Aaron_Peirsol -1.0879427194595337 -1.1728317737579346 -1.4274574518203735 1.230553150177002 0.9220141768455505 -0.23169542849063873 1.5912082195281982 -0.5174334049224854 -0.22787660360336304 -0.21369221806526184 0.6778053045272827 -0.7754788994789124 0.8007372617721558 -1.568801760673523 0.030669011175632477 -1.565280795097351 -1.2395256757736206 -0.11982075870037079 -2.309302568435669 0.3134761154651642 -0.055833835154771805 -0.45330819487571716 0.5463950037956238 -2.2715375423431396 0.9921549558639526 0.21395158767700195 1.2482166290283203 -0.5827484130859375 -0.28879213333129883 1.208646297454834 0.041803233325481415 0.1505069136619568 -1.8642854690551758 -0.39202600717544556 0.729535698890686 0.2403782308101654 -0.0944792628288269 0.16153185069561005 0.9064050316810608 -2.465639591217041 0.701111376285553 0.9978936314582825 -1.1193139553070068 -0.18045443296432495 1.037652850151062 -1.0811468362808228 0.9128713607788086 0.17587898671627045 -0.9896325469017029 0.8480126857757568 -1.3935989141464233 -0.07016228139400482 0.9807201027870178 1.6580359935760498 -1.106121301651001 -1.532663106918335 -1.5814223289489746 0.4593738317489624 0.17395462095737457 -1.221024751663208 -0.25369134545326233 -0.4498772621154785 -0.38446909189224243 -0.8888219594955444 0.5902989506721497 -0.3159645199775696 -2.5326504707336426 0.37551024556159973 -0.3708771765232086 -0.8545602560043335 -0.31744474172592163 0.32588085532188416 -2.5858917236328125 -0.70369952917099 -1.0827596187591553 -0.22573694586753845 0.02720355987548828 1.3162915706634521 1.6299229860305786 -0.03653733432292938 -0.18009299039840698 -0.5411678552627563 -0.28334563970565796 0.3318783640861511 0.6027867197990417 0.27426597476005554 1.6704696416854858 -0.08511100709438324 -1.4660340547561646 -1.1942373514175415 0.12499532848596573 0.3418828845024109 -1.3785558938980103 0.07612481713294983 -0.5276198387145996 1.8437107801437378 -0.028169887140393257 -1.7795747518539429 1.5315454006195068 -0.1207168847322464 -0.850852906703949 2.0767290592193604 0.9265293478965759 -0.9836661219596863 -0.7281251549720764 2.4375364780426025 0.7567256093025208 -1.2549099922180176 0.10447314381599426 -0.6932448744773865 0.5382073521614075 -0.8105407953262329 0.40939855575561523 -1.5041344165802002 0.891366183757782 2.908712863922119 -1.9008729457855225 0.7808917164802551 -1.2171741724014282 0.9243323802947998 -0.10012589395046234 0.5967828035354614 1.4582628011703491 0.3083045780658722 -1.3777296543121338 0.26866453886032104 0.048591844737529755 -0.12423383444547653
Aaron_Pena -0.7308475971221924 0.9848614931106567 -2.0117762088775635 -0.1713864803314209 -0.9887770414352417 0.40514180064201355 1.0527665615081787 0.949184775352478 -2.642622232437134 1.343206524848938 2.1913530826568604 -2.2671918869018555 0.8678622841835022 -0.7484380006790161 0.019720107316970825 0.02311744913458824 -1.0435198545455933 -2.0831682682037354 -0.4838511347770691 -0.6868364810943604 0.01329013705253601 0.5191906690597534 0.16242125630378723 0.69818514585495 -0.7730270028114319 -1.6543209552764893 0.2697616219520569 -0.11858557164669037 -1.2357144355773926 0.622180163860321 -1.453544020652771 0.4274127781391144 0.7041727900505066 1.266343355178833 1.6378874778747559 -0.4525364339351654 -0.19213098287582397 -0.6742100119590759 0.39652881026268005 0.0636088028550148 0.7661431431770325 -1.017848253250122 0.10175223648548126 0.823593020439148 -0.05490837246179581 -2.267056703567505 1.8771185874938965 0.3479268252849579 1.4492219686508179 -2.8799893856048584 -1.4022363424301147 1.2867941856384277 -1.131831169128418 0.027796044945716858 -2.4807310104370117 0.8761480450630188 -0.20765550434589386 0.06988856196403503 -1.9452731609344482 -0.8403364419937134 -0.8081753849983215 0.4524301290512085 -0.9463381767272949 -0.8410687446594238 0.7379660606384277 0.041330862790346146 0.5261738896369934 1.7752867937088013 0.2764417827129364 0.4262869954109192 1.6054295301437378 0.5489990711212158 -0.20924833416938782 0.7139139175415039 0.16539524495601654 0.43697014451026917 1.7301745414733887 1.002702236175537 -0.4550836682319641 0.7052525281906128 1.6698576211929321 0.20696601271629333 -1.1415925025939941 0.14575134217739105 2.0956149101257324 0.33501699566841125 -1.0812666416168213 -1.383431315422058 -1.2093510627746582 -0.2682649493217468 1.06696355342865 0.06977926939725876 1.3827639818191528 1.6887531280517578 -0.39209750294685364 1.6198532581329346 0.06545716524124146 1.477501392364502 -1.6772468090057373 0.07983723282814026 -1.4777268171310425 -2.602444648742676 0.39435461163520813 1.1668665409088135 -1.1811964511871338 0.24336446821689606 1.17405104637146 -1.0836354494094849 -1.192938208580017 1.8137803077697754 -0.7886884808540344 0.4095609784126282 0.5253829956054688 0.34180721640586853 -1.00375235080719 -0.8675134181976318 0.06322620809078217 -1.7587920427322388 0.029742497950792313 2.121077537536621 0.21043281257152557 0.5578539371490479 -0.6100742220878601 1.5586737394332886 0.30197539925575256 0.775551438331604 -0.08123508095741272 1.3134819269180298
Aaron_Sorkin -0.8540551662445068 0.35469701886177063 -2.4050099849700928 0.04490635544061661 0.2084689736366272 1.179121732711792 0.09418317675590515 -0.26991012692451477 0.9103878736495972 0.6018746495246887 0.7322062849998474 0.28047165274620056 -0.34894341230392456 -0.993003249168396 -0.40772584080696106 -0.008970968425273895 -1.4270055294036865 -0.4104321002960205 -0.9801089763641357 -0.21563564240932465 1.636393666267395 -1.3204206228256226 -0.7685449719429016 -1.8370875120162964 -0.35883378982543945 1.599147081375122 -1.6352308988571167 0.7660174369812012 0.24519294500350952 0.1272534281015396 1.6948996782302856 0.5951576828956604 0.6603727340698242 -1.362191915512085 0.2411532998085022 -1.6740132570266724 -0.27579668164253235 -0.9171435832977295 -0.8240430951118469 -1.2269458770751953 0.4955677390098572 1.8475631475448608 0.6821209192276001 -1.255234956741333 0.9497048258781433 -1.6682567596435547 0.5821120738983154 1.685954213142395 0.5360391736030579 -0.30379632115364075 -0.2145717293024063 -0.9070282578468323 -1.505407691001892 -0.09544768929481506 -0.720079243183136 0.5390182137489319 2.471015453338623 1.9068585634231567 1.055826187133789 -0.8994410634040833 -0.38700249791145325 0.3359096646308899 1.4461604356765747 2.519127607345581 -0.2762218713760376 -1.120018482208252 -0.4830623269081116 0.33745718002319336 2.153435707092285 -2.306828737258911 -0.26175475120544434 -0.6685035228729248 -2.3398072719573975 1.951926350593567 -1.5044854879379272 -0.9246053695678711 0.5549427270889282 -0.01336502656340599 0.10209497064352036 -1.2194405794143677 -0.06395694613456726 -1.7443665266036987 0.07769796252250671 -1.6560142040252686 -1.976366400718689 -2.066049098968506 0.3137166500091553 1.2397198677062988 -1.2921034097671509 -0.2253517359495163 -1.293176293373108 -2.610640525817871 1.1566821336746216 0.9512938261032104 -0.10814382135868073 0.11955893784761429 -1.0933924913406372 0.0083888815715909 -0.1598602533340454 0.13945874571800232 -1.077401041984558 -0.7755807638168335 0.2848812937736511 0.5063137412071228 -0.1470954418182373 -0.28631120920181274 -0.11150528490543365 -1.3582228422164917 -0.1116759404540062 1.4214808940887451 0.6496630907058716 -0.2304547280073166 -0.33418038487434387 2.02787184715271 0.23783931136131287 1.2316757440567017 0.9519070386886597 -1.1682102680206299 -0.44897904992103577 1.0897127389907837 -0.23324309289455414 1.5433968305587769 0.6539760828018188 1.8355555534362793 -0.3831614851951599 -0.5708989500999451 0.34348323941230774 -0.26122522354125977
Aaron_Tippin -0.5611299276351929 -0.2579018771648407 -0.5922398567199707 0.20600292086601257 0.6404669284820557 -2.557971477508545 -0.15419374406337738 1.2528977394104004 1.1720390319824219 0.23740273714065552 -1.5294541120529175 -1.5694828033447266 2.336934804916382 -0.24899005889892578 -0.33281660079956055 -0.7108069658279419 -0.16146980226039886 -1.8232957124710083 -0.10952875018119812 1.0945303440093994 1.075621485710144 1.8030964136123657 -0.23304378986358643 1.345880150794983 -0.6001319289207458 0.3395693004131317 -0.14829161763191223 -0.40171512961387634 -0.18421463668346405 -1.0877028703689575 -1.3118023872375488 -0.7196897268295288 0.6047139167785645 -0.8876906633377075 0.4716529846191406 1.875030755996704 -0.9550219774246216 -0.6029548048973083 0.2695278525352478 -0.888961911201477 -1.0042190551757812 0.893738865852356 -1.3957881927490234 0.3316055238246918 -0.06131793558597565 0.9550884366035461 0.27712956070899963 1.631211280822754 -1.7784572839736938 -0.01771928369998932 -0.5412527322769165 2.7702836990356445 -3.818526029586792 -0.6433183550834656 -0.0894869863986969 -1.7761327028274536 -1.0812355279922485 1.1261569261550903 -0.493221640586853 -0.8794782757759094 0.16558894515037537 -1.6386970281600952 -1.525383472442627 -1.974115252494812 -0.3284699618816376 1.1401416063308716 -0.8228669762611389 0.10638595372438431 -0.5162467360496521 -0.16250699758529663 0.7392165660858154 -1.3125895261764526 0.45621201395988464 -1.2915408611297607 -0.7489774227142334 -0.6384673714637756 -0.170385479927063 -0.29485347867012024 -0.2670348882675171 -0.39142346382141113 -0.11348187178373337 -0.4294743239879608 1.3353149890899658 1.7845567464828491 -0.5638695359230042 0.715106725692749 0.24803490936756134 -1.6856592893600464 0.01297140121459961 -1.4015324115753174 1.6850295066833496 1.2529150247573853 0.39258289337158203 0.4440542161464691 -1.063853144645691 1.4843217134475708 0.016727615147829056 0.5674470663070679 -2.636387586593628 -0.06842681020498276 -0.25991830229759216 1.2512966394424438 -0.32952988147735596 -0.861811101436615 -2.016385793685913 -0.8180065155029297 1.4727011919021606 -0.17959102988243103 0.7885258793830872 1.8670769929885864 -1.294719934463501 -1.9748339653015137 1.9377553462982178 0.4451075792312622 0.566001832485199 0.3764067590236664 0.04139816015958786 -1.5372234582901 -0.10951793938875198 -0.7674228549003601 -0.5710274577140808 1.6463252305984497 -2.16973876953125 -1.017514944076538 1.1092185974121094 -0.8614983558654785 0.6519646048545837 -0.5182290077209473
Abbas_Kiarostami -1.0893280506134033 -1.1880855560302734 -0.8534859418869019 0.6115022301673889 0.5228796601295471 2.391538619995117 1.1634929180145264 0.9224489331245422 -0.41651007533073425 0.8488910794258118 0.005139343440532684 -0.5336440801620483 -0.07209908962249756 1.7765952348709106 -0.5167262554168701 1.1920435428619385 -1.0953501462936401 -0.8100820183753967 1.4603403806686401 -0.3177785873413086 0.7007893323898315 0.6285343766212463 0.1271839141845703 -0.9048638343811035 1.6411652565002441 -0.010981328785419464 0.8000242114067078 0.06758028268814087 -0.915526807308197 -1.0984686613082886 -1.1516590118408203 1.4752289056777954 -0.3365589380264282 0.1786728799343109 0.29076841473579407 -0.28098851442337036 -0.7652913331985474 0.9385022521018982 1.2138087749481201 -2.3289270401000977 0.29596540331840515 1.6611437797546387 0.013100981712341309 0.2954089343547821 -0.8462597727775574 -1.1803721189498901 -1.5716761350631714 -0.15790168941020966 -0.4127953052520752 2.1530416011810303 -0.20499210059642792 1.5870518684387207 -0.3110005259513855 -0.5482955574989319 1.2460459470748901 -0.06568733602762222 0.07732732594013214 0.02769450470805168 -1.285683274269104 -1.378921389579773 -0.0793144702911377 1.1010299921035767 0.15888090431690216 0.022934598848223686 -0.8356429934501648 -0.33301711082458496 -1.4571876525878906 0.8579415082931519 -1.4694761037826538 0.8705588579177856 0.3998642563819885 0.3548915386199951 -0.7810145020484924 0.6116069555282593 0.052353404462337494 0.21919997036457062 -0.8430050611495972 0.7552284598350525 -0.3178500533103943 2.481200695037842 -0.3082199990749359 0.7476807832717896 0.18627728521823883 0.9145128130912781 0.9699183702468872 0.7705628871917725 2.1347038745880127 0.8521773815155029 -0.9459420442581177 -1.6885393857955933 0.8070697784423828 0.29498836398124695 0.24090585112571716 1.609068512916565 0.8666322231292725 0.05243352800607681 -0.7816330790519714 -0.30205097794532776 -1.3145420551300049 -0.5227649211883545 -1.058020830154419 -0.3352334499359131 -1.5565515756607056 -1.7312262058258057 0.06297139078378677 -2.829073905944824 0.792486846446991 -0.47814878821372986 0.7919734120368958 1.0123709440231323 0.5144244432449341 -1.6397497653961182 1.6861886978149414 1.1006064414978027 -1.1968435049057007 0.2510788142681122 1.4626483917236328 1.3308569192886353 -1.0514495372772217 -0.13393862545490265 0.009004663676023483 1.71234130859375 1.7590941190719604 1.291597604751587 1.0006511211395264 -0.6119865775108337 -0.04065272957086563 0.6295808553695679
Abba_Eban -1.7139569520950317 0.028360098600387573 -0.2964424788951874 0.866257905960083 2.091850996017456 -1.2723811864852905 0.5781997442245483 0.19912943243980408 -0.5907257795333862 0.4312390387058258 -0.6123093962669373 -0.489957720041275 -0.1868407428264618 -0.6111514568328857 1.1612151861190796 0.28945106267929077 1.0756322145462036 0.2855892777442932 -0.5595026612281799 -0.03697120398283005 -0.6058340072631836 -1.6063969135284424 -0.2958032786846161 0.33479833602905273 -0.9878249764442444 -0.8496249914169312 1.6749423742294312 2.7312731742858887 -0.34964466094970703 0.04633533954620361 -1.587605357170105 1.587593913078308 -2.292022943496704 -0.8866990208625793 -0.5911697745323181 -0.7089398503303528 -0.47368383407592773 -0.7258012890815735 0.08890928328037262 0.03113716095685959 0.5885531902313232 -1.8715603351593018 1.0292212963104248 1.6224019527435303 1.939071774482727 -1.3452361822128296 -0.04122272878885269 -1.2724730968475342 -0.38976532220840454 -0.9897185564041138 -1.0699665546417236 2.1881442070007324 -1.1609747409820557 1.462695598602295 -0.9557895660400391 -0.3341004252433777 -0.11039867997169495 0.6389546394348145 -0.17111928761005402 -0.25047630071640015 -0.6323940753936768 0.5423641800880432 0.14790068566799164 0.7613482475280762 -0.9636016488075256 2.0272629261016846 1.2802672386169434 -0.2769513428211212 -0.4225864112377167 -1.0354132652282715 -1.5942555665969849 -0.30699536204338074 2.4928269386291504 1.5471506118774414 -0.38418492674827576 1.1003355979919434 -0.5706759095191956 0.12191560864448547 -0.514498770236969 -0.37720930576324463 -0.00276772677898407 3.5075182914733887 -0.8031270503997803 -1.0931919813156128 -1.8707351684570312 -0.2558276653289795 0.3518649935722351 -1.3880037069320679 -1.4277706146240234 1.215503454208374 0.16699177026748657 -0.18346326053142548 -0.8417580127716064 -1.0202765464782715 -0.5050223469734192 -0.737388014793396 -0.8553028702735901 -1.2259374856948853 -0.5869179368019104 1.4433859586715698 -2.6123147010803223 0.3863799273967743 -0.7753097414970398 -0.158901184797287 0.9306371808052063 -0.8919082880020142 0.21896953880786896 0.479103684425354 1.1249189376831055 1.169378399848938 -0.8068081140518188 0.42544788122177124 1.628453016281128 -0.0713520348072052 -0.9612283706665039 0.6484969854354858 0.06315167993307114 0.0625719428062439 -1.3139337301254272 -0.31030791997909546 -0.09609699249267578 1.2132065296173096 1.201582908630371 -0.7033190131187439 -0.33687537908554077 0.9197494387626648 2.105912208557129 -1.4682254791259766
Abdel_Aziz_Al-Hakim -1.5024553537368774 -1.3975579738616943 0.5726166367530823 -0.9047461152076721 1.061112642288208 0.3242248296737671 0.17294490337371826 1.2017425298690796 0.21518594026565552 -0.8188613057136536 0.3093842566013336 -0.3348800241947174 0.4526667594909668 0.5750808715820312 -1.0796068906784058 -0.6027444005012512 0.1523994356393814 -0.6711251735687256 1.0591936111450195 -1.0999256372451782 -0.5095897912979126 -0.9125264883041382 -1.2583608627319336 -0.1669398844242096 -0.6823564171791077 -0.9985484480857849 0.3874513804912567 0.22529786825180054 -0.79578697681427 -0.46964219212532043 -0.8441570997238159 0.6143017411231995 -0.010184775106608868 -1.6952229738235474 -0.6328464150428772 1.1145083904266357 -0.5349727869033813 0.04603918269276619 0.2552711069583893 0.1252451241016388 1.4178025722503662 -1.154984712600708 0.6028462648391724 2.175354480743408 1.2631138563156128 -0.8586313128471375 0.3043060004711151 -0.2406533658504486 -0.16789942979812622 -1.283340334892273 -1.931653380393982 1.920392632484436 -2.395730972290039 -0.4961492419242859 -1.3687824010849 0.8906939625740051 -0.25305473804473877 0.11956730484962463 -0.7630341053009033 0.8008714318275452 0.14571699500083923 0.24392081797122955 -0.7252670526504517 -0.6942444443702698 -0.5475584864616394 1.9665112495422363 0.1260521411895752 0.6336922645568848 -0.24169406294822693 0.06388305872678757 -0.030425529927015305 0.7621729373931885 -0.08471377193927765 1.1914074420928955 0.24020756781101227 0.18257729709148407 -0.40769290924072266 -0.4123835563659668 -0.797102153301239 1.6260207891464233 0.1869068443775177 0.7577539682388306 0.17663869261741638 -0.10502702742815018 0.4576292335987091 -0.6518020629882812 0.3404349982738495 -0.8108574151992798 -0.5834006071090698 0.5212346315383911 0.16654402017593384 -0.09284764528274536 0.032922495156526566 -0.5610986351966858 -1.5391414165496826 1.352839469909668 -1.3368192911148071 0.5070043802261353 -1.4252774715423584 0.5600082874298096 -1.22357177734375 -1.1751244068145752 0.3378561735153198 -1.2837666273117065 -0.4829462170600891 -0.8564206957817078 0.9739944934844971 -0.44416752457618713 0.9949777126312256 0.7553945779800415 -0.02687104418873787 -0.6513959765434265 1.650231122970581 -0.34918078780174255 -0.5166919827461243 -0.05671420693397522 1.523604154586792 0.9002013206481934 -0.7546151876449585 -0.1388719230890274 0.22485944628715515 1.54867684841156 0.6560628414154053 1.509023666381836 0.31710100173950195 0.06023915857076645 -0.24509567022323608 -0.09963446855545044
Abdel_Madi_Shabneh -0.646357536315918 0.692487359046936 -0.534023642539978 1.0753270387649536 0.06645110994577408 -0.49996548891067505 1.395666241645813 -0.5481595396995544 -0.9421935677528381 0.6965489387512207 1.2815109491348267 -1.1954615116119385 0.21285642683506012 -3.145111560821533 -0.7048509120941162 -1.2013506889343262 -1.555209755897522 -0.5220876932144165 -0.5879530310630798 -0.7585088610649109 1.2930150032043457 1.1561670303344727 0.028665512800216675 -0.834130585193634 0.24799980223178864 0.8409462571144104 -0.6890404224395752 0.36036375164985657 0.6026787757873535 0.3232055604457855 0.48994606733322144 -0.04873030260205269 1.5247093439102173 -0.6351379752159119 1.3270608186721802 0.31197789311408997 0.26914840936660767 -1.2571860551834106 -1.2643418312072754 -1.6244062185287476 0.3782845437526703 1.220810890197754 -0.9771994352340698 -0.2469673752784729 0.31945812702178955 0.6214168071746826 1.1571415662765503 2.2016308307647705 -1.959958553314209 -0.14323757588863373 0.3247748017311096 0.7339067459106445 -1.4166440963745117 1.893540382385254 -0.8007088303565979 1.459618330001831 -1.5216436386108398 -0.6386435031890869 -0.25093209743499756 -1.493119716644287 0.700968325138092 -1.6682435274124146 0.06880718469619751 -1.4958970546722412 0.5153338313102722 0.3221927881240845 -1.7867857217788696 2.819026470184326 -0.6693769097328186 -0.06984779238700867 0.18388092517852783 -0.9587019681930542 -1.1247597932815552 -0.9508593082427979 -0.8640615940093994 0.4983397126197815 1.3151696920394897 1.650364637374878 -0.41244685649871826 0.7784351110458374 -0.20471128821372986 -0.49741658568382263 -1.276978611946106 0.2177131175994873 1.0727415084838867 -0.9445580244064331 0.4999241232872009 -0.0260651633143425 0.7996565103530884 -0.8885707259178162 -0.7441646456718445 0.5392190217971802 2.4667510986328125 1.025744915008545 0.10893229395151138 -0.35524633526802063 0.8829649090766907 0.06226436793804169 -0.04094165563583374 -0.6021568775177002 0.34914660453796387 0.010452806949615479 1.3599944114685059 -0.07599804550409317 -1.3635891675949097 1.7587038278579712 0.5100087523460388 -0.15101046860218048 0.5492448806762695 1.1513530015945435 -1.2298110723495483 -0.6696511507034302 -0.009248010814189911 -0.1036805510520935 0.6930937767028809 1.7500470876693726 -1.0625706911087036 -1.7042380571365356 0.32080453634262085 0.8046555519104004 -0.7363228797912598 1.150238275527954 0.2143300324678421 1.8684122562408447 2.137782096862793 0.32554420828819275 -0.05010609328746796 2.710442543029785
Abdel_Nasser_Assidi -0.19459205865859985 -0.428358256816864 -0.31655290722846985 -0.36266767978668213 0.2147248089313507 0.032908402383327484 0.20358510315418243 -0.1500394195318222 0.06080929934978485 0.10505212843418121 0.4096110761165619 -0.4858221411705017 0.2303151935338974 -0.538587212562561 0.1593860238790512 0.33362871408462524 0.514144778251648 -0.3938971161842346 0.038970768451690674 -0.4574441611766815 -0.16167451441287994 0.004047173075377941 -0.3142225444316864 -0.1477753221988678 0.2657490372657776 -0.10761290043592453 0.5178404450416565 0.17558611929416656 -0.38108736276626587 0.0008266568183898926 -0.03801897168159485 0.18571217358112335 0.2323603630065918 -0.1611734926700592 0.6186761260032654 -0.26950109004974365 0.6271547675132751 0.08097044378519058 0.41368749737739563 -0.11757338047027588 0.2884443700313568 0.3018151819705963 -0.15328675508499146 -0.18663948774337769 -0.39519453048706055 -0.589490532875061 0.07773923873901367 -0.05991505831480026 0.42491018772125244 0.3358254134654999 -0.4708693027496338 0.055614132434129715 0.14274992048740387 -0.2375277280807495 -0.04924203082919121 0.18464244902133942 0.5512853264808655 0.1448792666196823 0.004745861515402794 -0.917466938495636 -0.20265361666679382 -0.1021023839712143 -0.11268430948257446 0.9966546297073364 0.0983741506934166 0.4671892523765564 0.1261470764875412 -0.029202699661254883 0.28884157538414 -0.43478915095329285 0.0015975506976246834 -0.535331130027771 -0.0018889661878347397 -0.6535759568214417 0.029954291880130768 -0.07761538028717041 -0.10305951535701752 0.2846025228500366 -0.18516230583190918 -0.36443501710891724 -0.549696147441864 -0.18959912657737732 -0.11588595807552338 0.15585674345493317 0.5349813103675842 -0.06297625601291656 0.43377506732940674 -0.20652946829795837 -0.9085835218429565 0.786214292049408 0.17189879715442657 -0.025845559313893318 -0.1910017877817154 -0.00030959583818912506 0.2612374424934387 0.40370920300483704 -0.021103739738464355 -0.2937367260456085 -0.7994518876075745 0.1372719258069992 -0.24155732989311218 0.5802756547927856 0.2298593372106552 -0.3633221983909607 0.03810103237628937 0.48784470558166504 -0.27006134390830994 -0.17253728210926056 -0.23503845930099487 -0.356651246547699 0.07189738750457764 0.15265873074531555 0.39046332240104675 0.38071733713150024 -0.2528020143508911 0.17826013267040253 -0.08658045530319214 0.023953452706336975 0.19851231575012207 0.27631840109825134 0.03915092349052429 -0.3312159776687622 0.31309419870376587 0.09264370054006577 0.22991295158863068 -0.5343776345252991 0.35634106397628784 0.08666335046291351
Abdoulaye_Wade 0.19907987117767334 -0.1484115868806839 1.4976483583450317 -0.602845311164856 -0.2464916855096817 0.6682313084602356 0.6335505843162537 0.07222001999616623 1.4578191041946411 -0.3366093933582306 -0.5556985139846802 -0.10104721784591675 -0.4938002824783325 -0.3956473469734192 -0.13420148193836212 -1.4448820352554321 0.4856128990650177 0.9111009836196899 0.047806497663259506 0.36778220534324646 0.09256373345851898 -0.4280060827732086 -0.771755039691925 0.2638108432292938 -0.0005569299682974815 0.6407111287117004 -0.6884785890579224 -0.6172928214073181 -0.18418528139591217 1.0456454753875732 0.5400242209434509 0.194535031914711 -0.4294866919517517 -0.41522416472435 0.16144123673439026 -0.35554203391075134 0.8076679110527039 -2.1688289642333984 -0.5031423568725586 -0.5827876329421997 -0.3916262090206146 1.1329540014266968 1.2292851209640503 1.1608062982559204 2.163209915161133 1.2255131006240845 -0.27123117446899414 -0.24708795547485352 -0.48761308193206787 0.31064677238464355 0.6880715489387512 -0.1969784051179886 -0.8695093989372253 -2.089601755142212 -1.2253741025924683 0.009388763457536697 1.6458905935287476 -0.2146785706281662 0.28445661067962646 0.21753793954849243 1.4186443090438843 1.9060536623001099 0.3349442481994629 1.8140281438827515 0.052996352314949036 1.7722101211547852 0.2957209050655365 -0.13394811749458313 1.15352201461792 -0.9900835752487183 0.8772684931755066 -1.4649360179901123 0.483808696269989 -1.8824735879898071 1.7212798595428467 -0.5372448563575745 -1.0100502967834473 -1.097084879875183 -0.7780099511146545 0.5478455424308777 0.22054028511047363 0.8051882982254028 -0.5015596747398376 -0.8458941578865051 -0.7339951395988464 -1.1687629222869873 -0.2505505383014679 0.5404952764511108 -0.657744288444519 0.4018014371395111 -1.2702138423919678 1.0301954746246338 -1.3897830247879028 0.621115505695343 0.0960240438580513 0.6406593918800354 -0.06837862730026245 -0.6342970728874207 -1.7902863025665283 1.2811030149459839 1.025486707687378 -0.5604324340820312 -0.2684892416000366 -1.142240047454834 -1.5285735130310059 -0.14564035832881927 -1.1961171627044678 -0.9772815704345703 0.27362874150276184 -0.2202308028936386 -0.805173397064209 -0.513542652130127 0.6429744958877563 0.09442296624183655 0.3137812912464142 0.9014065265655518 -0.3774520456790924 -0.03257817029953003 0.32461509108543396 0.6659291982650757 0.4516142010688782 -0.9122889041900635 0.8486122488975525 -0.5279994606971741 0.29514479637145996 -1.8982768058776855 1.0096368789672852 -0.5494146943092346
Abdulaziz_Kamilov -0.7111623287200928 0.19179582595825195 -1.1883739233016968 0.4475109279155731 2.2959342002868652 -1.04668128490448 1.6924159526824951 0.8546744585037231 -1.5020138025283813 1.7012819051742554 -0.10122984647750854 -2.0239882469177246 -0.3952837586402893 -1.6437206268310547 -0.18200242519378662 0.24470366537570953 -0.12700645625591278 -0.9169242978096008 -1.543776035308838 0.04675363749265671 1.1145799160003662 1.7906016111373901 -1.2483184337615967 1.0790715217590332 -1.617233157157898 -0.6063234210014343 -0.8931555151939392 0.5533709526062012 -0.4713802933692932 0.4885241687297821 1.7453721761703491 -1.273173451423645 -0.7549470663070679 -0.4427669048309326 0.6809076070785522 -1.4437144994735718 -0.45456814765930176 -1.3132435083389282 1.5667743682861328 -1.855238676071167 -2.7806942462921143 -0.36817267537117004 0.5251363515853882 -0.4602919816970825 -0.8985787034034729 -0.5045618414878845 0.8971586227416992 0.22897487878799438 -1.1212613582611084 1.2553297281265259 -2.071089744567871 1.633454442024231 -0.2889288663864136 -0.08022601902484894 -1.03362238407135 0.3802189826965332 -0.3006938099861145 -0.822369396686554 -0.4763752222061157 -0.01484857127070427 -2.669156551361084 -0.26508036255836487 0.6253323554992676 1.4184330701828003 0.4073852300643921 0.5573726296424866 -0.7667651176452637 1.1657373905181885 0.15671423077583313 0.775833010673523 0.8106766939163208 -0.7440940141677856 -0.022250264883041382 -1.272760272026062 -0.36798515915870667 1.3069955110549927 -0.4848230183124542 -0.07921622693538666 -0.5260401964187622 0.7897168397903442 -0.03358906880021095 -0.06169017404317856 -0.32076358795166016 0.5526371002197266 1.9941093921661377 0.225938081741333 -1.2860641479492188 -0.26221764087677 -1.0198813676834106 0.5329782962799072 1.9772237539291382 0.5458069443702698 -1.4165759086608887 1.2115402221679688 0.019362300634384155 -0.6199139356613159 -1.2530689239501953 -0.3800359070301056 0.4981147050857544 -0.8943035006523132 -0.3903478980064392 0.5284232497215271 0.8189626336097717 -0.1720070242881775 -0.6616800427436829 -0.9621648788452148 0.7272000908851624 -0.8072109222412109 -0.7728576064109802 -0.1403355449438095 0.4678173065185547 -0.41050833463668823 0.6388411521911621 2.0494587421417236 0.7764425873756409 -0.6655154228210449 0.8677053451538086 0.9079967141151428 -0.7324044108390808 1.9756718873977661 1.6709965467453003 0.5221472978591919 -0.6672380566596985 -0.019972408190369606 -1.976029634475708 -1.7899576425552368 0.30006033182144165 -0.7735218405723572
Abdullah 0.18433302640914917 -0.3348424434661865 -0.6093280911445618 0.6803637146949768 1.226694107055664 0.4532913267612457 0.3314529359340668 0.9585198760032654 0.3246409595012665 0.677480936050415 -0.340833842754364 -2.9179039001464844 -0.22204478085041046 0.9069350957870483 -1.3422231674194336 -0.21452511847019196 2.085195541381836 -1.7021257877349854 -0.7409290075302124 0.20897328853607178 -0.2912839651107788 1.9950710535049438 1.2810418605804443 1.74444580078125 -0.6444846391677856 -0.7549443244934082 0.0007473174482584 -0.9509049654006958 1.2883774042129517 -1.1506904363632202 0.6226746439933777 -0.7616243958473206 0.32600221037864685 -0.6442524194717407 0.7411032915115356 1.2475874423980713 -0.5039109587669373 1.8702131509780884 0.6500460505485535 0.030577275902032852 -1.5346835851669312 0.6245065927505493 0.24459224939346313 -0.7953974008560181 1.2538565397262573 -0.2697336673736572 0.13233545422554016 1.5225504636764526 0.807729184627533 1.3029745817184448 -0.9914726614952087 2.1242520809173584 -1.3443902730941772 0.023082301020622253 -1.5925625562667847 1.0158653259277344 -1.206034541130066 -0.3906550705432892 -1.8420225381851196 0.6578549742698669 -1.1191091537475586 -0.17031791806221008 -0.2232504040002823 0.9034944176673889 -1.0051045417785645 1.976037859916687 0.5072647333145142 2.4377851486206055 1.5244194269180298 0.04246581345796585 -1.028883695602417 1.1490806341171265 -0.1401347517967224 -0.567682147026062 -0.4753943979740143 -0.21107304096221924 -1.6469181776046753 -2.6092593669891357 -1.398841142654419 -0.04668765515089035 -0.7000367641448975 1.4082165956497192 1.6059900522232056 1.4063154458999634 0.03167938068509102 1.1076740026474 1.1787588596343994 -1.3389338254928589 -0.2293836623430252 -0.6964622139930725 0.7641576528549194 2.375779867172241 1.2718026638031006 1.818692922592163 0.12423078715801239 1.08241868019104 -1.7632372379302979 0.881434440612793 -1.2886390686035156 0.6834745407104492 0.2163488119840622 0.6664636135101318 -1.0117321014404297 -0.06275466084480286 -0.48236730694770813 -1.078930139541626 -0.5792307257652283 -0.011027179658412933 -0.3197884261608124 -1.6749311685562134 -0.39021605253219604 -0.691379189491272 0.8685592412948608 1.6330435276031494 -1.2892932891845703 0.23298373818397522 0.2467116117477417 -0.2484150230884552 -1.3180691003799438 0.13358651101589203 0.11827036738395691 0.9463489055633545 -0.6887352466583252 -1.3335928916931152 -0.8699241280555725 -0.3034650981426239 0.5688949227333069 -1.363783359527588
Abdullah_Ahmad_Badawi -0.242984801530838 1.7682536840438843 0.06039400398731232 0.4756530821323395 2.1942660808563232 -0.5364964604377747 0.6412853002548218 1.0756617784500122 -0.4064980745315552 0.6468058824539185 -0.5137072205543518 -1.4118643999099731 -0.2124709039926529 -0.809564471244812 -0.6803520917892456 1.0993252992630005 -0.7003638744354248 -1.1619396209716797 -0.06557025015354156 1.1991147994995117 0.1465742290019989 2.8603436946868896 -1.370903491973877 1.5204403400421143 -0.23417651653289795 1.8706930875778198 -1.0398800373077393 1.4018267393112183 -0.13879325985908508 -0.6253542304039001 0.6348354816436768 -1.6462193727493286 -0.9628173112869263 -0.4187670350074768 0.7996289134025574 0.2867085933685303 1.2937071323394775 -2.678849458694458 1.4770216941833496 -0.5043067932128906 -1.2491883039474487 -0.036590248346328735 0.39728808403015137 0.5440344214439392 0.15530014038085938 1.2929896116256714 -0.7105194330215454 0.3087443709373474 -1.631007194519043 0.7062705755233765 -0.7402161955833435 2.7476086616516113 -1.1571205854415894 0.24738845229148865 -1.3880666494369507 0.32140904664993286 1.1623831987380981 -1.0872732400894165 -0.5103700757026672 0.9755456447601318 0.7910827994346619 -0.10113748908042908 1.1516752243041992 0.8312917351722717 -1.0804895162582397 1.401788353919983 0.31227830052375793 -0.6979195475578308 0.18765074014663696 0.5881021022796631 2.0443508625030518 -0.917564868927002 0.26006805896759033 0.03844839334487915 1.2851513624191284 0.5992541909217834 0.3566744923591614 1.99899423122406 0.9236271977424622 2.215763568878174 -0.4488818645477295 0.7609691619873047 1.1544556617736816 -0.10219927877187729 0.356330543756485 -0.15438252687454224 -1.1290054321289062 -0.15584741532802582 1.062104344367981 -0.6326622366905212 -0.16396546363830566 -0.14259123802185059 -0.545228123664856 1.0813586711883545 0.898956835269928 -1.1362274885177612 -0.8928446769714355 -0.9120592474937439 -1.3499293327331543 -0.31514373421669006 0.5369881391525269 0.5788465142250061 -1.0557780265808105 0.3773103654384613 -1.0973225831985474 -0.8117741346359253 0.400167852640152 -0.31199970841407776 -0.8213140368461609 1.0839298963546753 -0.11301567405462265 -0.353529155254364 2.355681896209717 1.2484726905822754 0.73911452293396 0.24286285042762756 0.5966075658798218 0.11925691366195679 -0.4630613625049591 -0.1726013422012329 1.3883914947509766 0.18168054521083832 -0.013769447803497314 -1.2417011260986328 -0.3588142395019531 -1.390861988067627 1.7226009368896484 -0.6668370962142944
Abdullah_al-Attiyah -0.8626585006713867 -0.43724918365478516 0.10932236164808273 0.14275845885276794 -0.1637229025363922 1.2595466375350952 0.4486694931983948 1.2342075109481812 2.1979103088378906 0.9976226091384888 -0.7110269069671631 0.10328765213489532 0.7607975006103516 -0.3632515072822571 -0.6074062585830688 0.05920637398958206 -0.48722586035728455 -0.9179242253303528 1.5208433866500854 0.7069951295852661 0.2263067662715912 -0.33122938871383667 -0.327333003282547 0.8048434257507324 0.2381751984357834 0.6608143448829651 1.4937573671340942 -0.6802489757537842 -0.6272931694984436 -1.6608576774597168 -1.4194629192352295 -1.2107269763946533 2.0021047592163086 -1.7423490285873413 0.013018166646361351 -0.9523094892501831 0.2026234269142151 -1.5532989501953125 0.1816118210554123 -1.0192776918411255 0.1857125461101532 -0.11332955956459045 0.2379971295595169 0.9342305660247803 0.24462257325649261 -1.1968281269073486 -1.7476658821105957 0.3908815383911133 -0.18365532159805298 -1.8402997255325317 1.5545680522918701 0.9414446949958801 -1.9648267030715942 -1.6413265466690063 -0.688043475151062 0.6482764482498169 3.199667453765869 -0.05844174325466156 -0.4147453308105469 0.0034181922674179077 1.2186939716339111 1.24979567527771 0.08215932548046112 0.6129528284072876 0.08433122932910919 -0.012762196362018585 0.678669273853302 -0.30049756169319153 -1.0041627883911133 -0.7514345645904541 -0.19414833188056946 -0.8619382381439209 0.007907549850642681 -0.05289951339364052 1.713363766670227 -0.7161805033683777 0.4125020205974579 0.729033350944519 -0.045731451362371445 -0.15038277208805084 -0.42350533604621887 0.7372257709503174 -0.053436607122421265 -1.5986905097961426 -0.9752353429794312 -1.6247408390045166 0.4474376440048218 -0.03434593603014946 -0.7387511730194092 -0.4220794439315796 -1.3841017484664917 -0.23893553018569946 0.65312659740448 0.8211249709129333 -0.8237163424491882 -1.2351725101470947 -0.5034496188163757 0.029044875875115395 -2.4628233909606934 0.564468502998352 0.7160739898681641 -1.2506073713302612 -0.03477306663990021 0.33224794268608093 0.14437851309776306 -1.124746322631836 -0.44910240173339844 -2.0760185718536377 0.2188968062400818 1.6972901821136475 -0.1336619257926941 -0.10691814124584198 1.3856405019760132 0.5057791471481323 -1.2565629482269287 -0.0360228568315506 0.017975643277168274 0.759635329246521 1.1699177026748657 1.1801038980484009 -0.19873328506946564 -0.11459463834762573 -0.46168625354766846 2.6042022705078125 2.0938940048217773 -0.36793237924575806 1.3661868572235107 1.0297155380249023
Abdullah_Gul -0.7827037572860718 -0.032049499452114105 0.7333168387413025 1.458763599395752 1.9535224437713623 -0.5460776686668396 1.0478464365005493 -0.6448939442634583 -1.0019142627716064 1.2920528650283813 -1.9747858047485352 -1.2636357545852661 1.854496955871582 0.03096441924571991 -0.6031495332717896 -1.854212760925293 0.34851494431495667 -2.6753101348876953 -0.2562482953071594 -0.1662442535161972 -0.6519901752471924 1.1715898513793945 0.30697888135910034 1.305132269859314 -0.6257778406143188 0.8450787663459778 0.6800169348716736 0.5058655142784119 -1.600466012954712 -0.772854745388031 1.4128106832504272 -1.1577659845352173 0.07484182715415955 -2.4278292655944824 -0.4893754720687866 0.038094256073236465 0.6979413628578186 0.011601977050304413 0.3117882013320923 0.24989111721515656 -0.6225824356079102 -0.26309600472450256 0.25479990243911743 0.8293530344963074 0.7360453009605408 1.4350788593292236 0.41417577862739563 1.3955628871917725 -1.0393505096435547 0.48965519666671753 -1.0796691179275513 1.6422141790390015 -1.0746034383773804 -1.2743773460388184 -1.2057563066482544 0.03122517839074135 1.4491794109344482 -0.03059627301990986 -0.7335866689682007 -0.7825336456298828 -0.41256678104400635 -0.9399436712265015 -1.353930115699768 -0.30762580037117004 -2.4851434230804443 -0.4492015242576599 -0.2525317668914795 -1.103712797164917 -0.7460108995437622 0.5419540405273438 0.5000494122505188 -0.44289031624794006 0.9597111344337463 -0.4981420636177063 -0.22237977385520935 0.22099176049232483 0.03353603184223175 0.8355015516281128 -0.5396400094032288 0.7928441166877747 -0.20532983541488647 0.6985514163970947 1.1384916305541992 0.3953081965446472 -0.3014557957649231 1.7930797338485718 1.3463196754455566 -0.37587374448776245 0.46298882365226746 -0.29598468542099 0.17081645131111145 -0.03601875901222229 0.6881794929504395 0.6185629963874817 1.9640041589736938 0.6019991636276245 -0.01343884039670229 0.6802828907966614 -1.4119250774383545 -1.0634175539016724 0.7602587938308716 0.3759990930557251 0.11672128736972809 -2.1110267639160156 -1.0205411911010742 -2.1017558574676514 0.860406756401062 0.4080493450164795 2.382216691970825 -0.5190146565437317 -2.8374571800231934 -0.4734017848968506 1.0157501697540283 2.0434775352478027 -0.9965656995773315 0.6736006736755371 -0.15326809883117676 -0.10339225828647614 -1.0657989978790283 0.093183234333992 0.2806418240070343 -0.7126717567443848 -1.413718342781067 -0.440274178981781 0.9534895420074463 -0.8798989057540894 1.6195005178451538 -0.031500063836574554
Abdullah_Nasseef -0.0031696707010269165 -1.4068852663040161 -2.2019574642181396 1.1931837797164917 -0.12540961802005768 0.9590373039245605 0.8428367972373962 1.581943392753601 -1.0500195026397705 0.018855877220630646 0.5553103089332581 -0.24209369719028473 -0.41159504652023315 -0.01660344749689102 -1.365498661994934 -2.1940114498138428 -1.1828742027282715 -0.6850314736366272 0.10269924998283386 0.38164669275283813 -1.5189437866210938 -0.30306997895240784 -1.086557388305664 -1.1519997119903564 0.030003204941749573 -1.4698477983474731 0.7603045105934143 -0.46766817569732666 -1.0217740535736084 -1.2414050102233887 -0.43412211537361145 1.2203619480133057 -0.002996508963406086 -0.6488223671913147 -0.6201411485671997 -1.2658729553222656 -1.283846139907837 0.011851638555526733 -0.15358850359916687 -1.143957495689392 -0.048705630004405975 0.5209078788757324 -0.6830341815948486 0.19198861718177795 1.6548285484313965 -3.7387897968292236 -0.4759809374809265 3.1026463508605957 1.6173105239868164 -0.5726447105407715 -1.043509602546692 1.5659358501434326 0.21517756581306458 -0.5016342401504517 -0.022027526050806046 0.3766075670719147 1.368536114692688 1.104953646659851 -1.9336047172546387 -0.20080554485321045 -0.9881831407546997 1.0261646509170532 -0.43485602736473083 1.6875007152557373 0.6644565463066101 1.4356688261032104 -0.00033692270517349243 0.7986673712730408 -0.9423401951789856 -0.9593671560287476 -0.08935307711362839 -1.2790154218673706 -1.5222156047821045 1.841355323791504 0.43010398745536804 -1.35777747631073 -1.356772780418396 0.777248203754425 0.06365992873907089 1.1866521835327148 1.2497227191925049 0.18846535682678223 -0.8036346435546875 -1.2504875659942627 0.8864145278930664 0.19301822781562805 -1.0627431869506836 0.42927294969558716 -0.7123531103134155 -0.972189724445343 -0.026123560965061188 0.66071617603302 -0.3794856071472168 0.8676695227622986 0.4740517735481262 1.1424816846847534 -1.4125611782073975 -0.4949156641960144 -0.6404096484184265 0.3662284314632416 -1.50467050075531 -1.661285638809204 -0.07984218001365662 -0.355325847864151 -0.07699952274560928 -0.7166600227355957 2.2880971431732178 -2.045618772506714 0.31254738569259644 -0.9110889434814453 -0.9077323079109192 0.23626841604709625 -0.04213351011276245 0.3164776563644409 -1.5774184465408325 0.7393889427185059 -0.6803117990493774 0.8021748661994934 0.10596784949302673 2.345585823059082 -1.032720923423767 0.4264969229698181 -0.05668873339891434 1.1273670196533203 0.574866771697998 1.3277603387832642 -0.06711692363023758 0.17756801843643188
Abdullatif_Sener -0.2423994243144989 -0.38289526104927063 -0.26784124970436096 -0.579160213470459 0.2467457503080368 0.001328837126493454 -0.10283508896827698 -0.0862138569355011 -0.03852005675435066 -0.012026665732264519 0.1308627426624298 0.1322561651468277 0.29490917921066284 -0.6585172414779663 0.2359498143196106 -0.3651461601257324 0.2761121988296509 -0.2247316986322403 0.3585822284221649 -0.5107728242874146 -0.20102158188819885 -0.18237416446208954 -0.17272937297821045 0.2892865836620331 0.1172603964805603 0.04966175556182861 0.6798558235168457 -0.08367244899272919 -0.38150501251220703 -0.41127336025238037 -0.21103698015213013 0.0076766349375247955 -0.05065356567502022 0.10361098498106003 0.407986044883728 -0.05286601185798645 0.3063287138938904 -0.2100709080696106 0.3655489683151245 -0.3230109214782715 0.27216821908950806 0.2467026710510254 0.2738490104675293 0.16051499545574188 -0.32046911120414734 -0.6343023777008057 0.19266800582408905 -0.5067788362503052 0.4299221634864807 -0.2761896848678589 -0.6085663437843323 0.12377367913722992 0.3519400358200073 -0.6037749648094177 -0.017948787659406662 0.2873629033565521 0.35370370745658875 -0.008251331746578217 -0.0346839502453804 -0.8376262187957764 -0.17308849096298218 0.03441367298364639 -0.3381793200969696 0.6860040426254272 0.021825077012181282 0.6944530010223389 0.09221511334180832 -0.053103890269994736 -0.1133807823061943 -0.023214571177959442 0.406839519739151 -0.3061927556991577 0.12716087698936462 -0.6001787781715393 0.2887061536312103 -0.17798002064228058 -0.178174689412117 0.40770837664604187 -0.2590118646621704 -0.5221214890480042 -0.26589611172676086 -0.056256622076034546 -0.40130624175071716 0.1613391935825348 0.5723268389701843 0.1312446892261505 0.23012927174568176 -0.21947212517261505 -0.7998623847961426 0.5480961203575134 0.20484298467636108 0.007259873673319817 -0.5682343244552612 -0.20103216171264648 0.3954322338104248 0.3177320063114166 -0.13391830027103424 -0.327286034822464 -0.390468567609787 0.1438385397195816 -0.16691714525222778 0.16915813088417053 0.5518035888671875 -0.30870339274406433 0.08531279116868973 0.4300631880760193 0.014509335160255432 -0.3581258952617645 -0.3376205861568451 -0.536709725856781 0.052076809108257294 0.30155354738235474 0.35076388716697693 0.39083874225616455 -0.005728529766201973 0.3858402669429779 -0.4779362678527832 0.3984985649585724 0.6755659580230713 0.618196964263916 -0.08922088146209717 -0.5537354946136475 0.3728300929069519 0.3738180994987488 0.38564079999923706 -0.6800588965415955 0.85242760181427 0.1323336958885193
Abdul_Majeed_Shobokshi -0.16512782871723175 -0.7851318120956421 -0.027318304404616356 -0.6010692715644836 2.457653760910034 0.22090215981006622 0.2345760315656662 2.3871357440948486 -0.6654307842254639 0.8112829923629761 -1.3800615072250366 -0.403996080160141 0.08534860610961914 0.4523206651210785 0.8060113191604614 0.4641038179397583 0.6866271495819092 -0.2002028524875641 1.4308140277862549 0.5154514908790588 0.9025970697402954 0.36635345220565796 -1.0309972763061523 0.5571287870407104 -0.2934224605560303 0.007528092712163925 0.4386555850505829 1.1555352210998535 -1.343856930732727 -0.14342822134494781 0.11253125965595245 1.5537770986557007 -0.15341345965862274 -0.769159734249115 -1.145321249961853 -0.5631351470947266 0.9838075637817383 -0.542807400226593 -0.35066521167755127 0.7344648838043213 -0.7101890444755554 -1.2865242958068848 0.770856499671936 -0.180169939994812 0.47810274362564087 0.694945216178894 -0.6066370606422424 0.23954017460346222 0.49427294731140137 -0.5397391319274902 -1.439729928970337 2.091479539871216 -1.4850833415985107 0.19437378644943237 -0.299668550491333 -0.5117442011833191 -0.12580236792564392 -0.43457576632499695 0.899685263633728 0.7775275707244873 -0.8693692088127136 1.5752400159835815 -0.5514405965805054 1.1233205795288086 0.05261863023042679 -0.23627625405788422 1.4732394218444824 -0.09892717003822327 -0.5882153511047363 0.8716315031051636 0.3916192650794983 -0.4832057058811188 1.7480063438415527 1.3538163900375366 0.4883570075035095 -0.044214945286512375 -0.06531789153814316 -0.44070425629615784 -1.5473743677139282 1.7877570390701294 -0.882294237613678 1.2624588012695312 -0.21017321944236755 -0.8882488012313843 -0.3234168291091919 0.6202176809310913 -0.6800051331520081 -0.7457537055015564 0.13193447887897491 0.8480210900306702 0.42284253239631653 0.4613827168941498 -1.467387080192566 -1.4381399154663086 0.18101122975349426 -0.7190427780151367 0.1567762941122055 -0.0935186967253685 -0.12379145622253418 1.3246458768844604 -0.615817666053772 -1.232116460800171 -1.1562851667404175 -1.104234218597412 -0.6513344645500183 -1.3103634119033813 0.9274910688400269 -0.37607672810554504 2.257519006729126 1.421776294708252 -1.9656643867492676 -1.519720196723938 0.6554365158081055 0.12188727408647537 0.8243789076805115 -1.47794508934021 0.8356479406356812 0.9515721201896667 0.334265798330307 -0.8032530546188354 1.2231109142303467 0.89565110206604 -0.9682965278625488 0.30271267890930176 -0.0316038653254509 -0.37005990743637085 1.052724838256836 0.17784807085990906
Abdul_Rahman 0.9275954961776733 -1.1796987056732178 0.10130048543214798 0.36414021253585815 0.02878618985414505 -0.882261335849762 0.8259836435317993 -0.3529287278652191 -0.14365926384925842 0.5931167006492615 -1.0947667360305786 -0.8107187747955322 0.9257563948631287 -1.3198431730270386 0.774120569229126 1.4994175434112549 1.1758003234863281 0.27367323637008667 0.5293673276901245 -0.8976443409919739 -0.8353362083435059 0.9111642241477966 0.6007499694824219 0.5687129497528076 -1.4697641134262085 0.15993669629096985 0.2636590003967285 0.26904627680778503 1.6422091722488403 -0.22043457627296448 -1.3247100114822388 0.6910054087638855 0.7732162475585938 0.44430238008499146 0.8520663380622864 -0.3028271496295929 -1.2603683471679688 1.878975510597229 -0.9650165438652039 -0.6293735504150391 0.2669600248336792 1.042955756187439 1.5609089136123657 -0.11796212196350098 1.711897850036621 -2.126530170440674 0.7754946947097778 0.2231704741716385 1.1182687282562256 -0.06696339696645737 0.05364028364419937 -0.9151349663734436 -2.212934970855713 0.3958398103713989 -0.4640444219112396 0.6120807528495789 -0.6840324401855469 0.5773248076438904 -1.4332700967788696 1.441158652305603 -1.3857606649398804 -0.5257938504219055 -1.042458176612854 0.567114531993866 -0.7326528429985046 1.612802267074585 1.0289831161499023 1.986641764640808 1.0676238536834717 0.497857004404068 -0.5455606579780579 0.575129508972168 -0.05370400473475456 1.0717467069625854 0.27720266580581665 -0.14946532249450684 -2.364650249481201 -2.3401520252227783 -0.8698588013648987 -1.6256070137023926 0.33707571029663086 0.7114226818084717 -0.382723331451416 -0.4023037254810333 -0.26309067010879517 -2.048387050628662 1.8741185665130615 -1.4164087772369385 -0.7573453187942505 -0.6707603931427002 -1.0865702629089355 1.7702255249023438 1.4568638801574707 -0.4118490517139435 -0.9098040461540222 -1.1392689943313599 -2.5206446647644043 1.3745309114456177 -1.0288503170013428 0.256328284740448 0.3186300992965698 -1.423249363899231 -1.9280132055282593 -0.17125137150287628 1.136350154876709 0.22808800637722015 -0.80748450756073 -2.3623340129852295 -1.5302318334579468 0.6420129537582397 0.048575885593891144 1.2759455442428589 -0.7875646352767944 0.8191447257995605 -1.3874262571334839 -0.6393523216247559 -0.650435209274292 -1.8811113834381104 -0.7373484969139099 0.9422258138656616 0.8715395331382751 0.30956393480300903 0.2569809556007385 1.617967128753662 0.4425138235092163 0.8575524687767029 0.4324192404747009 0.1700948178768158
Abel_Aguilar -0.5316243171691895 0.5426425933837891 -0.9302058815956116 -0.7891924977302551 0.5685248374938965 0.5642591118812561 2.5587174892425537 0.03191647678613663 -0.2615673243999481 1.3250737190246582 1.443642258644104 -0.38027575612068176 -0.8292402625083923 -0.018646307289600372 -1.2059314250946045 0.23348353803157806 0.22766949236392975 -2.7243082523345947 -1.784700632095337 -1.265576720237732 0.2097269892692566 -0.0019384552724659443 -1.429455280303955 0.029751278460025787 -0.603786289691925 -0.810113787651062 1.1417423486709595 0.5355799198150635 -2.1390175819396973 -0.4924096167087555 1.7648502588272095 1.06504487991333 0.6659358739852905 -0.21169647574424744 -0.23637928068637848 -1.2262674570083618 -0.9471139907836914 -1.543279767036438 1.2810230255126953 -2.3372819423675537 -1.9457125663757324 -0.1773785650730133 -1.7792667150497437 -1.4589629173278809 0.3614324927330017 -1.100737452507019 -0.7111030220985413 1.4113961458206177 -0.44554972648620605 1.2928446531295776 -0.7493549585342407 1.0942823886871338 -0.03220279514789581 -0.36070355772972107 0.6717023849487305 0.81430983543396 -0.4171401560306549 -1.1694340705871582 -0.9318838715553284 -1.646756887435913 -1.7379350662231445 1.5184135437011719 1.1624001264572144 1.8358244895935059 1.3941254615783691 0.28616559505462646 -1.4027031660079956 1.2316728830337524 -0.07296111434698105 0.6830118894577026 -0.16492663323879242 0.026940330862998962 0.5744227766990662 -1.1219671964645386 -1.249955415725708 -0.36650729179382324 -1.1059470176696777 -0.911397397518158 1.044311285018921 0.09636621177196503 -0.09649541974067688 0.27524295449256897 -0.8723227977752686 -0.4261090159416199 1.221620798110962 0.21549099683761597 -0.4256291389465332 -0.11423590779304504 0.2402767539024353 0.2653912901878357 0.8007027506828308 0.4707193374633789 0.4704349935054779 1.6915963888168335 2.771507501602173 1.1728547811508179 0.4214668273925781 1.67557692527771 -0.7143950462341309 0.1637313961982727 0.45734721422195435 0.23269465565681458 -0.2602545917034149 -0.4435034692287445 -0.43506139516830444 0.2410895973443985 0.1787559986114502 0.22305621206760406 -0.6913695931434631 -0.6812909841537476 -1.0573430061340332 0.2992873787879944 0.9564923048019409 0.5850699543952942 -0.8036512136459351 1.8454118967056274 0.10762454569339752 0.8526220917701721 -0.7034193873405457 0.7449294924736023 -0.5018960237503052 1.1686770915985107 1.5714752674102783 0.4769887924194336 0.6998860836029053 -0.99354088306427 0.47277578711509705 -0.7449917197227478
Abel_Pacheco 0.45983052253723145 1.0570646524429321 -0.07113774120807648 0.638913094997406 0.7273238301277161 0.05196424573659897 0.21615509688854218 0.7623721957206726 -0.07174204289913177 0.14089465141296387 0.3065032660961151 -1.4598411321640015 -0.19424737989902496 0.05649492144584656 0.5690443515777588 -2.066100835800171 0.19762355089187622 -1.8840887546539307 -0.9053015112876892 1.8738701343536377 -0.13279113173484802 -0.44664016366004944 1.359973669052124 0.12255721539258957 0.6286967396736145 -0.6787809133529663 1.2269940376281738 1.3444674015045166 -0.1093483716249466 -1.2280285358428955 -2.2587151527404785 -0.1380424201488495 -1.7513244152069092 0.5533193945884705 -0.6023319959640503 -0.4108750522136688 -0.6484649777412415 -0.5942443609237671 1.3109157085418701 0.05072817578911781 -0.648898184299469 -1.9639347791671753 -0.8719390630722046 0.6026560664176941 0.8763662576675415 -0.008706528693437576 -2.436715602874756 0.17385438084602356 1.1741271018981934 -2.010911464691162 0.3595174551010132 0.9586920738220215 -0.7071322202682495 -0.7550175786018372 -1.3364624977111816 0.0896807387471199 1.0963150262832642 -1.6495361328125 -0.04084104299545288 -0.14923736453056335 -0.2815217077732086 1.5477632284164429 -0.811022162437439 -0.5520163178443909 -1.2619315385818481 1.5698795318603516 0.26231852173805237 -1.8701950311660767 -0.6940771341323853 -0.03849158436059952 -1.4962012767791748 0.25219011306762695 1.971047282218933 0.4992963671684265 0.2760944664478302 1.1413838863372803 0.7118216753005981 0.15884171426296234 -0.15987077355384827 1.4523731470108032 -0.18630042672157288 3.084508180618286 -0.35344797372817993 -0.48791393637657166 1.0423057079315186 -0.8458272218704224 -0.043285563588142395 -1.431188941001892 -0.23584216833114624 0.9547867178916931 0.881476640701294 1.028397798538208 -0.9464437365531921 0.881481945514679 0.007850002497434616 -1.0045455694198608 1.182364821434021 0.3941204845905304 -1.4956097602844238 -0.5728891491889954 -0.14950960874557495 -3.3979525566101074 -0.5827727317810059 2.402211904525757 0.899500846862793 0.7874165177345276 2.186833143234253 -0.37241339683532715 0.5080813765525818 0.8991344571113586 1.303430438041687 -1.561795949935913 -0.0840902179479599 -0.0841001570224762 0.8736503720283508 0.9180779457092285 -0.4697459936141968 0.8938613533973694 1.0803217887878418 0.10799270868301392 1.6583234071731567 1.0596510171890259 -2.0746846199035645 0.052468329668045044 -1.2624115943908691 0.035333700478076935 0.15287956595420837 -0.7830154299736023
Abid_Hamid_Mahmud_Al-Tikriti -0.4147696793079376 0.7500113248825073 0.09047254920005798 -0.914943516254425 0.8446860909461975 -0.38212352991104126 -0.12554879486560822 1.9992631673812866 -0.26415660977363586 1.045124888420105 -0.4844135642051697 0.6658572554588318 1.1373308897018433 -0.618162989616394 -1.079606533050537 -0.10901180654764175 1.7508164644241333 -0.03208889067173004 1.1831576824188232 -0.4439369738101959 0.1010100394487381 -0.5116743445396423 0.22549012303352356 1.0603070259094238 -1.7421989440917969 0.21478909254074097 -2.92655348777771 0.9433020353317261 -1.1515942811965942 -1.3996859788894653 -1.2100133895874023 -1.761958360671997 -0.8339779376983643 -0.29779818654060364 0.4894584119319916 -0.8957950472831726 1.0431443452835083 0.2938668429851532 -0.05510196089744568 -1.070392370223999 -1.210568904876709 -0.06981679797172546 1.481484293937683 3.00480318069458 -1.0582432746887207 -0.5171898603439331 1.9847556352615356 1.0009609460830688 -0.6280354261398315 -0.0982874184846878 -0.792277455329895 1.6099603176116943 -2.959907054901123 -0.024754080921411514 -1.0087262392044067 1.2108708620071411 0.5167838335037231 -0.5417168140411377 0.14662699401378632 1.771871566772461 -1.1154841184616089 -0.005429916083812714 0.6309984922409058 -0.19051319360733032 0.673515260219574 1.0207123756408691 -1.6243224143981934 1.1054515838623047 0.46711206436157227 0.9749077558517456 -0.13271279633045197 1.2978123426437378 -0.5322462916374207 0.8808175325393677 -0.32844260334968567 0.6323601007461548 -0.8328332901000977 -2.0072720050811768 -0.3918062746524811 -0.9184871912002563 0.33939680457115173 -1.5026942491531372 -0.27485015988349915 0.3967211842536926 0.07606910914182663 -1.1921433210372925 -0.1152241975069046 -1.6933073997497559 -0.20375870168209076 1.1655032634735107 0.1572495698928833 -1.2997099161148071 -0.13055886328220367 -1.3048168420791626 -1.1295627355575562 0.23510430753231049 0.7117863893508911 0.02966318093240261 -1.3828270435333252 -0.9569606184959412 0.9721139073371887 -0.852076530456543 -0.6557316780090332 0.11962953954935074 -1.5036405324935913 -0.026204850524663925 -0.7695613503456116 -2.9178576469421387 0.5817921757698059 1.1391769647598267 0.04083951562643051 0.32861244678497314 1.1241713762283325 1.7325806617736816 0.2461881786584854 -2.36836314201355 -0.3046530485153198 -1.162490963935852 1.2764614820480347 -0.12542489171028137 0.23915274441242218 0.20023654401302338 -1.4914660453796387 2.0677502155303955 -1.0171051025390625 -1.0647351741790771 2.0965166091918945 -1.2581373453140259
Abner_Martinez -1.2911138534545898 -0.7766684293746948 -0.5941691994667053 0.014318272471427917 -0.5236095786094666 0.782914400100708 -0.9264920353889465 1.13987398147583 -0.20198819041252136 0.726629376411438 -0.1675601303577423 -1.570508599281311 -0.24530960619449615 -0.22153154015541077 0.9332386255264282 1.3917176723480225 -0.5616439580917358 0.5808921456336975 0.4064960777759552 -0.8503325581550598 -1.4609794616699219 -0.7417526841163635 0.1899855136871338 -0.19169220328330994 -1.2003368139266968 -1.4427368640899658 1.6012033224105835 0.3488657772541046 -2.6872193813323975 -0.8929869532585144 -1.488095998764038 -0.8040443658828735 0.8531589508056641 0.03475441783666611 0.9537444114685059 1.5666358470916748 -1.2740591764450073 -0.6131560206413269 -0.06645946204662323 -0.9299091100692749 0.25457364320755005 -1.5948787927627563 0.2171245813369751 -0.13599340617656708 0.9623897671699524 -3.949516534805298 0.5993677377700806 0.013659288175404072 0.6394107937812805 -0.8026719093322754 -0.48542845249176025 1.7803266048431396 0.38622379302978516 0.812625527381897 0.6413278579711914 0.5367047786712646 -1.111893653869629 -0.42171764373779297 -0.9224915504455566 0.8997271060943604 0.5978428721427917 -0.008370276540517807 1.4064176082611084 0.5078176856040955 1.008142352104187 -0.12120373547077179 0.49402567744255066 -0.05530056357383728 -1.2093620300292969 1.4673881530761719 0.3179013133049011 -1.0511884689331055 0.43485763669013977 -0.6629117131233215 1.7422983646392822 0.12210139632225037 -2.1691935062408447 0.27881690859794617 0.6235353946685791 -0.5431751608848572 1.6781797409057617 0.9107803106307983 0.22539184987545013 1.3518701791763306 1.1452863216400146 -0.38988757133483887 -0.9095548391342163 -0.6488233208656311 0.28002819418907166 -1.0454769134521484 -0.9756173491477966 -0.2878892719745636 -0.24428847432136536 1.3317887783050537 -1.7404595613479614 0.7755172848701477 -3.7880280017852783 -0.49421101808547974 -0.2418874353170395 2.6116366386413574 -0.22539293766021729 0.4556801915168762 -0.7834146022796631 0.4463755786418915 1.5015722513198853 -1.2008237838745117 -1.7735202312469482 1.3320872783660889 -1.7033658027648926 0.3760748505592346 0.10095285624265671 1.2450498342514038 -0.43626394867897034 1.3909521102905273 -2.493147850036621 -1.155836582183838 0.19297859072685242 -1.1753098964691162 -2.0822412967681885 0.7371670007705688 1.0506528615951538 -1.9031976461410522 -0.21919305622577667 0.6099886894226074 -0.16765430569648743 0.8081942200660706 1.7202600240707397 -0.46892309188842773
Abraham_Foxman 0.2717900276184082 0.7787884473800659 0.2959061861038208 0.49412646889686584 2.541835308074951 -0.8697789907455444 1.660328984260559 1.1547495126724243 -0.11662425100803375 0.2502691447734833 -0.7197797298431396 -1.0989183187484741 0.2408071905374527 0.22286298871040344 1.1113684177398682 -1.0043492317199707 -0.39593204855918884 -1.7752127647399902 0.3608342707157135 1.404402494430542 -0.07331093400716782 1.3589231967926025 -1.0887717008590698 1.0052670240402222 0.616333544254303 -1.1784158945083618 1.6532816886901855 -1.3991515636444092 -0.20996014773845673 -1.7452774047851562 -1.3046890497207642 -0.9771935343742371 -0.05529337376356125 0.024044416844844818 -0.45962175726890564 1.414021372795105 -1.7955235242843628 -1.164495587348938 0.8576236367225647 -1.0536394119262695 0.012849465943872929 -0.8656177520751953 -1.8194636106491089 1.046204924583435 -0.7028965353965759 -0.03544194996356964 -2.089726448059082 0.029441416263580322 -0.8483814001083374 -1.0280144214630127 -0.5748392939567566 2.6408655643463135 -0.8026636838912964 -1.0350193977355957 0.07708384096622467 -1.5076786279678345 0.3196713328361511 -1.6197401285171509 -0.20783120393753052 -0.2068403959274292 0.010748658329248428 -0.6137719750404358 -1.3493372201919556 -1.6707746982574463 0.15666446089744568 0.22842270135879517 0.02181534469127655 -1.558702826499939 -1.7592694759368896 1.3063095808029175 0.16431619226932526 -1.477953314781189 -0.16453559696674347 -0.5641721487045288 1.3904335498809814 0.36878514289855957 0.5196428298950195 1.2125321626663208 -0.1885848045349121 2.3303232192993164 0.2755570709705353 2.6272034645080566 -0.11344455182552338 -0.6128400564193726 1.98844575881958 1.466568112373352 -0.3039715886116028 -1.2201011180877686 -0.24316635727882385 0.08115154504776001 0.474784255027771 2.7978556156158447 -0.509432315826416 0.48891839385032654 -0.49933135509490967 -1.5049136877059937 -0.4088646471500397 -0.6614757180213928 -0.6888201236724854 1.12035071849823 -1.6137101650238037 -0.8602113723754883 -1.1672029495239258 0.5268380641937256 0.28682616353034973 -0.7273074984550476 1.8235162496566772 0.7212177515029907 0.015566200017929077 0.8842083215713501 -1.06483793258667 -0.883979082107544 1.0331672430038452 -0.6650142669677734 -0.03151188790798187 0.19551816582679749 0.10869073867797852 0.8260002136230469 0.9779511094093323 0.7369465231895447 1.1876108646392822 0.7526963949203491 -2.0722641944885254 -0.8495599627494812 0.5471361875534058 0.26260510087013245 -0.5266512036323547 0.6587063670158386
Aby_Har-Even -0.8410526514053345 -0.15266720950603485 -0.5821290612220764 1.1254632472991943 1.9821598529815674 -1.1118979454040527 0.4363775849342346 0.240215465426445 1.2295390367507935 1.6303486824035645 0.0840415433049202 -0.8825738430023193 0.7911387085914612 -0.5994926691055298 1.795350193977356 1.038967251777649 -2.0160152912139893 -0.2514221668243408 1.5124328136444092 0.44511622190475464 -2.068297863006592 0.3747360110282898 0.18131732940673828 2.1775732040405273 0.2629319727420807 0.5440935492515564 2.4120311737060547 -0.3031834065914154 -0.8972870707511902 -1.2683826684951782 -0.9893406629562378 -0.9079383611679077 0.2844865918159485 0.23210984468460083 -0.2260388731956482 -0.2485760748386383 1.3585916757583618 -1.162459135055542 0.7684985399246216 -0.0759807750582695 1.5543580055236816 -0.9247016310691833 1.671032428741455 0.7046598792076111 0.15423583984375 0.9387194514274597 -2.5655887126922607 -0.4336983859539032 0.32846856117248535 -0.5350402593612671 0.11591096222400665 1.4694942235946655 -1.2305654287338257 1.5609692335128784 -1.5146427154541016 -1.2716898918151855 0.6902350783348083 -0.051148511469364166 -0.9719651937484741 -0.7178899049758911 1.8927050828933716 1.678328275680542 -0.814389169216156 1.1337897777557373 -0.3584204912185669 0.8739381432533264 0.3329663872718811 -1.344712495803833 -0.46747222542762756 -0.3415321111679077 0.24786056578159332 -2.392258882522583 1.2038438320159912 0.4161694049835205 0.8007590770721436 -0.6264975070953369 0.8645153045654297 1.886615514755249 -0.09137699753046036 0.7021661400794983 -0.30505627393722534 1.9201545715332031 0.38358625769615173 -0.8343193531036377 -1.1019521951675415 -1.4090802669525146 -0.15242289006710052 1.5099215507507324 -0.9700174331665039 -0.8821747899055481 -0.7341948747634888 -0.14710672199726105 1.2946360111236572 0.8218070864677429 0.643690288066864 -1.9611512422561646 -0.4447498917579651 0.4756295382976532 -2.5805106163024902 0.9373283982276917 -1.2593992948532104 -0.7142438292503357 -0.18632715940475464 0.9863411784172058 0.45976901054382324 0.4716975688934326 0.8459537029266357 -0.13473668694496155 -1.3757058382034302 0.6902579665184021 0.38844311237335205 -0.2375422865152359 0.9946759939193726 -0.6976290941238403 -1.0357869863510132 0.7716288566589355 -0.3006410598754883 -0.23192131519317627 0.4451604187488556 0.7304738163948059 -1.1719262599945068 -0.5613526105880737 0.7029533386230469 0.3186275362968445 1.521939754486084 -0.5075896978378296 2.001523733139038 2.12125301361084
Adam_Ant 0.38614189624786377 0.17873409390449524 -1.2490817308425903 0.2976070046424866 0.5979704260826111 0.8896130323410034 0.37047719955444336 0.43831881880760193 0.6027940511703491 0.602838933467865 1.1159838438034058 0.15935508906841278 1.3918135166168213 0.0070966631174087524 0.6821796894073486 0.9887812733650208 -0.5085258483886719 -0.3942255973815918 -1.6389743089675903 1.5562812089920044 1.008313775062561 0.5130417346954346 -0.2878897488117218 -1.568222999572754 1.5825953483581543 0.3031282424926758 0.501963198184967 0.0750008299946785 0.3744456171989441 -0.4707813262939453 -0.7498871088027954 0.28033578395843506 -0.1269194483757019 -0.3858819901943207 0.4473837912082672 0.65904301404953 -1.070430874824524 1.016656756401062 0.4968385696411133 -1.5661848783493042 -0.5523525476455688 2.5356857776641846 -1.4913707971572876 -0.8876970410346985 -1.234052300453186 -1.7570759057998657 -0.22534668445587158 -0.22896921634674072 0.39982736110687256 0.46372103691101074 -0.21686740219593048 -0.271034300327301 0.04627370834350586 -0.14912502467632294 1.3126652240753174 -1.5464810132980347 1.2522953748703003 0.14030635356903076 2.407094955444336 -0.8185232281684875 -0.2744140028953552 1.3450652360916138 0.5257695913314819 0.3665170669555664 1.7499382495880127 -1.5537331104278564 -1.4379339218139648 0.44091546535491943 -0.03851389139890671 -0.718367338180542 -2.353616952896118 -0.20184879004955292 -2.8453457355499268 -0.6169207096099854 0.1759227067232132 0.6019932627677917 -1.2367165088653564 0.39366838335990906 0.82179194688797 -0.5028310418128967 0.5395191311836243 -1.3599191904067993 -0.9872972369194031 0.8038790225982666 0.8249726295471191 0.8039535284042358 0.7979050278663635 1.3057591915130615 -1.7544065713882446 -1.007286787033081 1.6927188634872437 1.4050089120864868 0.1279614120721817 -1.280526041984558 -1.0046613216400146 1.8361549377441406 -0.32548075914382935 -3.0404696464538574 1.3692808151245117 -0.22097226977348328 -2.327122926712036 1.0592358112335205 -1.8460512161254883 -2.0944106578826904 0.751123309135437 -0.10559901595115662 -0.38766658306121826 -0.4064922034740448 1.3968201875686646 0.7361393570899963 1.0676453113555908 -1.6213243007659912 -0.7285627126693726 0.4745520353317261 0.7778493762016296 1.6829594373703003 -1.2427785396575928 0.7776400446891785 1.323109745979309 1.4406076669692993 0.2804511785507202 0.39882510900497437 0.007895100861787796 -0.5195894837379456 1.1560615301132202 -1.2576647996902466 0.31857943534851074 -1.5425347089767456
Adam_Freier -0.41065067052841187 1.1528960466384888 -0.3676482141017914 0.6491417288780212 2.76440691947937 1.104278802871704 2.472935914993286 -1.104053258895874 -0.7370988726615906 1.3754944801330566 1.7479498386383057 -2.2209792137145996 0.4987678527832031 -0.5941164493560791 0.316618949174881 0.35969388484954834 -0.9292386770248413 -1.900215983390808 -0.5487175583839417 -1.7989553213119507 -0.9457237720489502 1.6699270009994507 0.1835554838180542 0.6924657821655273 1.4491467475891113 0.5337185263633728 0.7975063323974609 0.2282692790031433 -1.2409321069717407 0.8645213842391968 1.5694026947021484 -0.7431320548057556 0.6892198920249939 0.490709125995636 0.5528685450553894 0.28890347480773926 0.15085768699645996 -1.6912987232208252 -0.3412966728210449 -0.11698749661445618 0.9701501727104187 -0.8658375144004822 0.8051972389221191 1.6226252317428589 0.2635623812675476 0.14232857525348663 -0.2764497399330139 0.414108008146286 1.449251651763916 0.32604989409446716 0.16416728496551514 -0.25844067335128784 -0.3470354378223419 0.16643568873405457 -2.0301480293273926 -0.23751384019851685 -0.22514434158802032 -1.8190059661865234 -1.1655139923095703 -1.0207886695861816 -1.1133408546447754 -0.9064928293228149 0.4380759298801422 -0.35983628034591675 -0.01641378179192543 -1.7357616424560547 -2.2376670837402344 0.2173278033733368 0.7761805057525635 0.28286656737327576 0.5392112731933594 0.22574511170387268 -0.6021349430084229 -0.39127153158187866 -1.4140881299972534 0.03378750756382942 2.4731578826904297 1.710805892944336 0.3879860043525696 2.925039052963257 -0.9929577708244324 1.6164454221725464 0.7135157585144043 0.043442144989967346 1.290421962738037 0.05219393968582153 0.9518556594848633 0.11862927675247192 0.3441542088985443 0.47556063532829285 0.46913573145866394 0.9372413754463196 1.2990683317184448 2.105924367904663 1.6763803958892822 -0.2636565566062927 -0.5339810848236084 0.9427395462989807 -1.8537027835845947 -0.24297532439231873 0.8507828116416931 -1.4189584255218506 0.5517697334289551 0.12049082666635513 -2.202143907546997 0.6908345818519592 -0.4102432131767273 -0.04791153967380524 -1.099411129951477 -1.1280269622802734 -1.0502758026123047 0.10291263461112976 0.6744325160980225 1.0749015808105469 1.759163737297058 0.4642072021961212 2.1838371753692627 -1.1205493211746216 0.6101230382919312 1.2456355094909668 0.983234703540802 -0.017686553299427032 0.9878527522087097 1.2283084392547607 -0.22097130119800568 -1.138032078742981 0.44172555208206177 2.007174253463745
Adam_Herbert -1.4066318273544312 -0.6715388298034668 -1.0379453897476196 0.0356670543551445 1.5853204727172852 -0.2804724872112274 1.9504821300506592 -0.21900762617588043 -0.19743913412094116 0.48083099722862244 -1.1398714780807495 1.1300593614578247 -0.9986019134521484 -1.019187092781067 0.3640190064907074 0.7437267303466797 -1.4259639978408813 0.08134844899177551 0.5262280702590942 -1.816956639289856 -0.024867162108421326 0.7999162077903748 -2.346407175064087 -0.013796098530292511 0.7044398188591003 0.25852176547050476 0.7246949076652527 -0.2804053723812103 1.4476401805877686 1.0372936725616455 0.16270679235458374 0.6170325875282288 0.602172315120697 -1.8869656324386597 -0.763949990272522 -1.9076796770095825 -0.5483991503715515 0.2843749523162842 0.44150760769844055 -1.6149778366088867 0.06525932252407074 0.07271842658519745 0.440400093793869 0.7708642482757568 0.10250458121299744 0.057157840579748154 -0.7575098276138306 -1.375866174697876 -1.1900930404663086 1.429566740989685 -1.2466479539871216 1.374828577041626 -0.054024793207645416 -0.2931276559829712 -0.739899754524231 0.23601889610290527 -0.41452181339263916 -0.42940056324005127 0.2782902717590332 -0.19019868969917297 -1.2581816911697388 -0.6177529096603394 -0.43520301580429077 -0.732220470905304 -0.026090089231729507 1.142651915550232 -0.4502516984939575 1.0165585279464722 -0.8316016793251038 -0.992946982383728 0.4162251353263855 -1.9386098384857178 -0.11909180879592896 -1.5604400634765625 1.3065849542617798 -0.6048492789268494 0.28742715716362 1.3045501708984375 -0.9227279424667358 1.4487947225570679 -0.2775009870529175 0.7195121049880981 -1.6357438564300537 -0.9976291060447693 -0.6542218923568726 1.4438652992248535 -0.41217711567878723 1.3619093894958496 -0.8084907531738281 1.0296738147735596 1.4086841344833374 -0.12314864248037338 0.688811182975769 -1.6664180755615234 -0.2624903917312622 -0.24896453320980072 -0.7322459816932678 -1.0399246215820312 -0.5779618620872498 0.28970766067504883 -2.1324715614318848 -0.15988445281982422 2.285830020904541 -1.2396509647369385 -0.21732845902442932 -1.8591481447219849 0.7468752861022949 -0.28367969393730164 0.6106876134872437 1.8406052589416504 -0.25160878896713257 -0.37796086072921753 0.6572761535644531 0.3549499213695526 0.6889310479164124 -1.488000750541687 0.06639181077480316 2.641357898712158 0.6438949108123779 0.47763219475746155 0.2711254954338074 0.4655618965625763 1.8410531282424927 1.9551595449447632 0.6841347217559814 -0.1536659300327301 -0.1806500107049942 2.1934571266174316
Adam_Kennedy -0.20792868733406067 0.4604126513004303 -0.6968737840652466 -1.1515876054763794 -0.45317643880844116 -1.0095221996307373 0.7444319128990173 0.10108254849910736 -0.6449518799781799 0.41246646642684937 -0.9521990418434143 0.7283537983894348 1.0847522020339966 -0.5173295140266418 -1.5440356731414795 0.005384258925914764 0.13890959322452545 -1.2703882455825806 0.6679057478904724 -0.9846980571746826 0.7793062925338745 0.64540034532547 -1.0664887428283691 0.49697884917259216 -0.5761829018592834 -2.133481979370117 -1.5273187160491943 -1.1521848440170288 -0.3458685278892517 0.5103746056556702 -0.9709919691085815 -1.2282774448394775 0.54451984167099 0.4860150218009949 -1.0658427476882935 0.7143744230270386 -0.6053871512413025 0.43246984481811523 -0.9713975787162781 -1.8966466188430786 0.9495987892150879 0.4633026421070099 -0.5386689901351929 1.8347631692886353 -0.5204746723175049 -0.6904663443565369 1.9480892419815063 0.8523640632629395 -1.1256219148635864 -1.7820415496826172 0.07330094277858734 0.4809144139289856 -2.9797487258911133 -1.1977050304412842 -1.1955775022506714 -0.5582764148712158 -3.4641101360321045 -0.2583152651786804 1.5906437635421753 0.5202905535697937 -0.12244269251823425 -0.7674407362937927 -2.057919979095459 -2.02087664604187 2.073265790939331 0.12328105419874191 -2.219879150390625 2.191124677658081 -0.4443182051181793 0.3733561038970947 0.1416780799627304 0.2866363525390625 -0.013838443905115128 -1.2352949380874634 -0.1650252640247345 0.5581514239311218 1.583588719367981 0.5874006748199463 0.9541791081428528 -1.2106438875198364 -0.26292821764945984 -0.12696483731269836 -1.5314756631851196 1.1036933660507202 -0.9444246292114258 0.3004355728626251 1.3071951866149902 -2.608088970184326 -1.6784192323684692 0.7025432586669922 2.282578706741333 1.1788605451583862 1.1476954221725464 -1.7516241073608398 -0.6747593283653259 -0.06846485286951065 2.177002429962158 0.411182165145874 0.06269364058971405 1.993093729019165 -0.8333544731140137 0.5208430886268616 0.4420548975467682 0.09375142306089401 -2.508979320526123 -0.32109588384628296 0.5212661623954773 -0.9864064455032349 -1.5271629095077515 0.7720068097114563 -0.929477334022522 -0.961068332195282 1.5044313669204712 -0.4341859817504883 0.5400243997573853 -0.5016809701919556 -0.1998465210199356 0.685731053352356 -0.13742077350616455 1.465442419052124 -0.6235576272010803 1.5828964710235596 -1.1890794038772583 2.696019172668457 0.5088898539543152 -0.7346993088722229 -0.4512800872325897 0.45760899782180786
Adam_Mair -2.494223117828369 0.6489614248275757 -1.5883629322052002 0.6818808317184448 2.0351169109344482 0.5703487992286682 1.4342906475067139 0.815649151802063 -0.02407338097691536 0.14951787889003754 1.9950681924819946 -0.5829592943191528 -0.11963064223527908 -0.8779619932174683 0.4024200141429901 1.0387741327285767 -0.32352808117866516 -0.6496008634567261 -1.4520174264907837 -0.4624212682247162 -0.45146092772483826 0.07011759281158447 -0.4440283477306366 0.3525453209877014 0.6275199055671692 0.983316957950592 0.4407927095890045 -0.045468732714653015 -1.1596089601516724 -0.3954887390136719 -0.13714534044265747 -0.4134077727794647 -0.4947703182697296 -0.5491432547569275 1.2112617492675781 0.5902860164642334 -0.5317116379737854 -0.717410683631897 -0.3099060654640198 -0.2906263470649719 0.21428099274635315 0.49211370944976807 -0.14239588379859924 1.0618188381195068 0.619430422782898 -1.486725926399231 1.1482430696487427 0.244174063205719 2.515052556991577 -0.31679704785346985 -0.13617487251758575 1.932159662246704 -0.5664585828781128 -0.8661350011825562 -0.5904116630554199 0.3340310752391815 -0.5686075091362 -0.6974602937698364 0.41020306944847107 1.8652883768081665 0.5796982645988464 0.4652392268180847 0.3239055871963501 0.318626344203949 2.3412184715270996 -0.06982839107513428 -1.4250191450119019 3.494880199432373 1.9652175903320312 0.47831663489341736 -0.5479257702827454 1.1633347272872925 -2.048408269882202 0.3886600732803345 0.20978586375713348 -0.14806443452835083 0.6220875978469849 0.8567082285881042 -1.1091278791427612 0.961208701133728 -1.5912868976593018 0.42300182580947876 -0.5732405781745911 0.4284675121307373 0.030574724078178406 0.2772993743419647 0.12428081035614014 -0.9775593280792236 -2.5202815532684326 -0.48938170075416565 1.264768362045288 0.3207554817199707 1.4063223600387573 0.10936213284730911 -0.8522948622703552 0.8964433073997498 -0.5720071196556091 1.2537779808044434 -0.34634730219841003 1.762612223625183 -0.889961838722229 -0.7941202521324158 -0.5144047737121582 0.11531903594732285 -0.9632327556610107 -0.7749818563461304 -0.9795087575912476 -0.7323113679885864 -1.724799633026123 0.10205641388893127 -0.4141184091567993 0.2466685175895691 2.110994577407837 -0.11875714361667633 0.9854231476783752 1.418125867843628 0.6512739658355713 0.6411651968955994 0.9353935122489929 2.7352468967437744 1.3677732944488525 -0.28776684403419495 0.5795398950576782 0.7639284133911133 -0.8530011177062988 -1.9131938219070435 0.03714670240879059 0.940345287322998
Adam_Rich 1.0328980684280396 1.871850609779358 -1.4048434495925903 0.8782479166984558 -0.7226613759994507 -0.7024185061454773 -0.06373337656259537 -0.8069226741790771 -1.7030338048934937 1.3442976474761963 0.2890036702156067 -1.5793418884277344 0.6788765788078308 -1.1524202823638916 0.4325472116470337 1.6977698802947998 -0.9628268480300903 -2.7598438262939453 0.07344534993171692 -0.6017906069755554 -0.8503105640411377 2.156986951828003 0.7751715183258057 0.7000666856765747 0.3534804582595825 0.2967802584171295 1.6625875234603882 1.2260075807571411 -0.18086619675159454 0.8671281337738037 -1.9400533437728882 0.27634719014167786 0.13935111463069916 0.21288001537322998 2.3811001777648926 0.8186399936676025 0.8679766654968262 -1.0035126209259033 0.15917067229747772 0.014481600373983383 0.1077396497130394 0.6609767079353333 -0.714057445526123 -1.2654410600662231 1.1177133321762085 -1.571879506111145 1.390627145767212 0.2841200530529022 -0.1539078652858734 -0.30979201197624207 -0.7541218996047974 0.6053124666213989 -0.2664162516593933 1.650414228439331 -2.5443942546844482 0.5438191294670105 1.0437616109848022 0.14267301559448242 -1.4529982805252075 -0.21550410985946655 0.6084722280502319 -0.948185920715332 0.9511526226997375 -0.8405241370201111 -0.8575109243392944 0.3804693818092346 1.9614620208740234 0.9528554677963257 -0.17779865860939026 1.2770386934280396 1.9541847705841064 -0.05018153041601181 -0.36184999346733093 1.2181297540664673 0.6476596593856812 -0.31437408924102783 1.5022121667861938 2.275179147720337 0.8858518600463867 -1.177235722541809 0.9356059432029724 0.49306052923202515 0.478278249502182 0.9848394393920898 0.6801007986068726 -0.29133325815200806 1.3275291919708252 -2.2174837589263916 0.2505832016468048 -1.761455774307251 -0.6395542621612549 -0.39891743659973145 2.3788564205169678 0.5244705080986023 0.12893033027648926 1.1566849946975708 -1.121314525604248 0.5034434795379639 -1.9696393013000488 0.5007975101470947 -1.3210170269012451 0.10206771641969681 -0.13082027435302734 -0.2296912968158722 0.8277012705802917 0.09966133534908295 -1.3181719779968262 1.17239248752594 -0.9424982666969299 2.1588332653045654 -0.6949036717414856 0.24427935481071472 0.6704674959182739 1.376786708831787 -1.189265251159668 0.5073146820068359 -1.4247760772705078 -1.8009799718856812 -1.1810795068740845 0.6676766276359558 0.7351244688034058 -1.1836689710617065 -0.000662975013256073 0.39310258626937866 2.7510006427764893 0.7451420426368713 0.8157389163970947 0.1193922907114029
Adam_Sandler 0.056281089782714844 -0.908928394317627 -2.0982189178466797 -0.47360286116600037 0.9297277927398682 -0.5270202159881592 -1.3576768636703491 0.9991793036460876 -0.44991055130958557 0.651750385761261 1.2541512250900269 -1.293565034866333 0.23609252274036407 -1.823214054107666 0.9331656694412231 -1.7579137086868286 -0.36173903942108154 -1.3288991451263428 -0.4863360524177551 -0.48655784130096436 -0.22050800919532776 -0.4977828860282898 0.8395406007766724 0.43759238719940186 -0.20810766518115997 -1.7025545835494995 0.9841592311859131 -0.6096966862678528 -0.08911983668804169 1.2564934492111206 -1.3166311979293823 -0.0995817482471466 -0.02934027835726738 -0.058421775698661804 0.2562032639980316 1.9860239028930664 0.45912307500839233 0.290231853723526 -0.4098625183105469 -1.353914737701416 0.5277883410453796 -0.18487225472927094 -1.8022109270095825 0.6351040005683899 -1.1956568956375122 -1.4611685276031494 2.027146816253662 -0.15175563097000122 -0.6199288964271545 -1.8638232946395874 -1.0858970880508423 1.4432467222213745 -0.9683351516723633 0.8698142766952515 -0.6097448468208313 -0.22119012475013733 -2.27192759513855 -0.2408565878868103 -0.19767974317073822 -0.42790669202804565 0.2320069968700409 -1.4674890041351318 0.36015069484710693 -1.7091875076293945 1.4255532026290894 1.720487117767334 -1.0286036729812622 2.9662277698516846 -0.8059534430503845 0.6361799240112305 0.3116217851638794 0.25547802448272705 -1.804380178451538 -0.21899180114269257 0.08984467387199402 1.728903889656067 -0.019909366965293884 0.7798494696617126 -1.2971690893173218 -0.07773458957672119 -0.7863232493400574 0.5452007055282593 -0.9995638728141785 2.7523586750030518 1.2200803756713867 -0.3210030794143677 -0.7168064713478088 -1.8633368015289307 -0.9326491355895996 -1.6692688465118408 1.4993661642074585 -0.6283392906188965 0.22761371731758118 0.2791309356689453 -1.8995659351348877 1.9418665170669556 -0.4776320457458496 -0.09109323471784592 -0.34147322177886963 0.14375413954257965 -1.7261168956756592 -0.2945387661457062 0.7061992883682251 -0.5248141288757324 -1.0782687664031982 1.6401174068450928 -0.09910130500793457 -0.9671697616577148 1.063973069190979 1.2980971336364746 -0.8879953026771545 -0.8827281594276428 0.21644462645053864 -1.6573901176452637 0.8064932823181152 0.7440735101699829 -2.2775728702545166 -1.9373905658721924 -0.28240078687667847 1.628049612045288 -0.01948276162147522 0.4371338188648224 -0.41633141040802 -0.03823336958885193 0.40081655979156494 0.16436904668807983 0.20050790905952454 0.3014352321624756
Adam_Scott -0.3013248145580292 0.5101442337036133 -0.6073523759841919 -0.5192974805831909 -0.6981191635131836 1.2500840425491333 0.147808238863945 0.47279924154281616 1.1366757154464722 -0.5189451575279236 1.3377110958099365 0.4583339989185333 0.5412330627441406 -0.9813628196716309 -0.29761049151420593 1.1611000299453735 -0.4102729558944702 -0.3403049111366272 0.30145978927612305 0.37913334369659424 -0.49828040599823 0.6832818984985352 -0.9046526551246643 0.12604394555091858 0.0491408035159111 -0.6826322674751282 0.1384471356868744 0.2440488487482071 -0.7668705582618713 -0.854032039642334 -1.3519076108932495 -0.4957255721092224 0.05033174902200699 -0.27289021015167236 0.4613243639469147 0.1827741116285324 -0.4425997734069824 -0.12351580709218979 1.2723662853240967 -0.45560911297798157 0.5498003959655762 0.11721234768629074 -0.7377337217330933 -0.13723765313625336 -1.624975323677063 -1.7611457109451294 0.5414336323738098 -1.014565110206604 -0.13949725031852722 0.9470247030258179 -0.40594571828842163 0.631066083908081 0.5424819588661194 -0.5765959024429321 0.6210283041000366 0.2098734974861145 -0.20623630285263062 0.1217406839132309 -0.805803120136261 0.032394424080848694 0.4881821274757385 -1.0458134412765503 0.5762174129486084 -0.13285665214061737 1.6408729553222656 0.29686081409454346 -0.21588367223739624 0.6410549879074097 -0.5381547808647156 -0.5506681203842163 0.11076809465885162 -0.16600659489631653 -0.13898202776908875 -0.20411500334739685 0.7587217688560486 0.3820588290691376 -0.3404034972190857 1.1455788612365723 0.752195417881012 0.5785782933235168 -0.09222742915153503 -0.8000261783599854 0.17344456911087036 0.5635895133018494 1.0393027067184448 -0.03495454788208008 0.4471522271633148 -0.21633587777614594 -0.8099046945571899 0.17910811305046082 0.7581722736358643 -0.6372409462928772 -0.14986920356750488 -0.18764883279800415 -0.4532462954521179 0.4789809584617615 -1.7074904441833496 -0.20888842642307281 -1.3655736446380615 -0.4406222105026245 -0.16518932580947876 0.9795059561729431 -0.0334656685590744 -0.011853352189064026 -0.33208030462265015 -0.4082515239715576 -0.13839764893054962 -0.5128227472305298 -0.7919383645057678 -0.11710862815380096 1.4282934665679932 0.8091399669647217 1.2641950845718384 0.3499099612236023 -0.5398942828178406 -0.18639428913593292 -0.13268715143203735 0.5872771739959717 0.8016610741615295 1.3541725873947144 -0.6066969037055969 -0.3821859359741211 0.8473789095878601 0.6638162136077881 0.13915543258190155 -0.09734165668487549 0.11241395026445389 0.4704669713973999
Adelina_Avila -0.10953904688358307 1.1640902757644653 0.9244281649589539 -1.1468820571899414 1.0669548511505127 -0.472749263048172 0.3088985085487366 -0.8409992456436157 -0.28833991289138794 -0.10584302246570587 -0.5056930184364319 0.8767986297607422 -0.4696009159088135 -0.22623009979724884 1.4850167036056519 0.14153625071048737 -0.4757023751735687 -1.247942566871643 -0.8327308297157288 -0.41385045647621155 -0.4960569441318512 -0.2363768368959427 1.3645820617675781 0.8258684873580933 0.6329376101493835 -1.8192707300186157 0.28308337926864624 1.2716777324676514 0.8113624453544617 -0.0961814746260643 -0.7824679613113403 -2.005221128463745 -1.6136916875839233 1.55958092212677 -0.7347203493118286 0.027667831629514694 -2.0599541664123535 -0.19872736930847168 1.3207335472106934 -0.1689273566007614 0.1068480983376503 -0.8183050751686096 -1.4083768129348755 2.05167293548584 0.3268437087535858 0.20318251848220825 -1.5268555879592896 -2.157766580581665 -0.24699606001377106 -0.5461859703063965 -1.3687025308609009 0.24724899232387543 -0.5374435186386108 -0.23975515365600586 -0.4249185025691986 -0.7930465936660767 0.5938695669174194 -1.736287236213684 -2.353541374206543 0.022446103394031525 0.5172677636146545 0.06545239686965942 -0.565842866897583 -2.035196304321289 -1.5462634563446045 1.8039482831954956 -1.0030285120010376 0.03699047863483429 -0.5232934951782227 0.1288663148880005 -1.7323917150497437 2.147580146789551 0.39857542514801025 -1.9493098258972168 1.33091402053833 1.4461919069290161 -0.7911131381988525 0.2630254924297333 0.8520748615264893 1.6674193143844604 -1.021259069442749 2.997385263442993 0.8030534982681274 -0.5547791719436646 0.5817122459411621 0.8862156867980957 0.25015538930892944 0.624247670173645 0.041691042482852936 1.3175170421600342 2.1209490299224854 0.03685791790485382 0.41273534297943115 0.5903305411338806 1.9044402837753296 -1.2227528095245361 -0.5643527507781982 0.5791434049606323 0.045977815985679626 -0.07752025872468948 0.7477515339851379 -0.2538624405860901 -1.1296894550323486 1.8003535270690918 1.6374399662017822 -0.2484990507364273 -0.15266309678554535 1.0349119901657104 -1.2278062105178833 -0.2599395215511322 0.3708629012107849 -0.1183726042509079 0.1318356990814209 -1.4697155952453613 0.022561123594641685 1.0731806755065918 -0.14383354783058167 1.3809260129928589 0.9836885333061218 -1.142064094543457 1.5031179189682007 2.2192909717559814 0.3905286192893982 -1.781677484512329 0.10008833557367325 -2.3574533462524414 -1.7756990194320679 -0.18274128437042236
Adel_Al-Jubeir -1.1796754598617554 -1.3786354064941406 -1.0284290313720703 0.5901265740394592 0.2715763747692108 0.14691945910453796 -0.4521262049674988 -0.16679967939853668 -0.1745392084121704 0.8898826837539673 0.04615066945552826 -1.8597790002822876 0.26445525884628296 0.31223124265670776 0.5466464757919312 0.12172667682170868 0.2662814259529114 -0.08186472952365875 -0.43103763461112976 -1.0900413990020752 -1.40242600440979 0.5588391423225403 -1.1530535221099854 1.1174473762512207 -0.448354035615921 -0.26767778396606445 0.626745879650116 -1.195745825767517 -0.5247209072113037 -1.2249107360839844 0.8590323328971863 -0.5252435207366943 1.1835819482803345 -1.8840562105178833 2.6574463844299316 1.1069449186325073 0.9668339490890503 0.9764884114265442 0.7162637114524841 0.9861342906951904 -0.07479748129844666 1.0552784204483032 2.2766354084014893 -1.0807976722717285 0.41583284735679626 -3.3139684200286865 1.0147682428359985 1.7857547998428345 0.2984210252761841 -0.1160966008901596 -0.3548431992530823 0.995110034942627 -1.241511583328247 1.1352418661117554 -0.21993815898895264 0.3470743000507355 0.3122585415840149 0.496299684047699 -0.3357478380203247 0.21070224046707153 1.6286808252334595 -0.8253154158592224 0.16751372814178467 0.47412481904029846 -0.30804502964019775 1.9475997686386108 0.34685367345809937 2.3659040927886963 -0.7504607439041138 0.3227381110191345 -0.46740514039993286 -0.892245888710022 0.7321887016296387 -0.1374683827161789 0.133912593126297 -0.4713157117366791 -0.11235422641038895 -0.3892749547958374 -1.1162998676300049 -0.4356446862220764 -0.12345699965953827 0.5678268671035767 -0.6585930585861206 2.6705822944641113 -1.0808638334274292 -0.00931268185377121 1.3337116241455078 -0.9507835507392883 -0.03525013476610184 -0.5199593305587769 -0.7685382962226868 0.6601906418800354 1.1894283294677734 -0.12067035585641861 -1.8205676078796387 2.008375883102417 -2.259276866912842 0.348554790019989 -0.7559549808502197 1.1511056423187256 -1.0909812450408936 -0.1720530390739441 -0.4772287607192993 -1.003947377204895 2.1215834617614746 -2.2147836685180664 -1.2701771259307861 0.16840067505836487 1.375250220298767 0.016448214650154114 0.5843172669410706 -1.5442352294921875 1.6280858516693115 1.3543648719787598 -2.721195697784424 -0.9033626317977905 -0.4830481708049774 0.032198913395404816 -0.6440739631652832 1.6015455722808838 -1.5913641452789307 -1.5560188293457031 -0.10010853409767151 0.8173349499702454 0.9986046552658081 1.6902333498001099 1.2804290056228638 -1.2585875988006592
Adisai_Bodharamik 1.5766202211380005 -1.0905033349990845 -0.4417034089565277 -1.7690109014511108 0.39178574085235596 -0.19937339425086975 0.38362398743629456 0.23864129185676575 -0.2546684145927429 -0.42862358689308167 -0.6960188150405884 0.3277285099029541 -0.24347493052482605 -0.6847774982452393 -0.2899070382118225 -1.1662745475769043 -0.4636651575565338 -1.3661707639694214 0.3297871947288513 -1.7908661365509033 0.11410075426101685 -0.3732306957244873 -0.6466810703277588 0.45434287190437317 0.1507136970758438 0.4941147267818451 0.9727573394775391 0.2773616313934326 0.8482807278633118 -0.2104005664587021 0.08498942852020264 1.7486768960952759 -0.16956543922424316 -0.8443549275398254 -0.5751304030418396 0.29736965894699097 -1.6254916191101074 0.3748058080673218 0.2838197350502014 -0.15344028174877167 0.09590815007686615 0.2079683393239975 0.5462191104888916 -1.3021818399429321 0.013841991312801838 -0.2123912125825882 0.15923652052879333 -0.15718473494052887 -0.7915553450584412 0.10222320258617401 -0.9632522463798523 1.1334282159805298 0.7717678546905518 -0.9023634791374207 0.5625454187393188 0.7646864652633667 -1.2782762050628662 0.4271676242351532 0.46842160820961 -0.4632931649684906 -1.3854243755340576 -1.6133366823196411 -0.044490981847047806 0.5000501871109009 -0.25652191042900085 1.111444354057312 0.2687074542045593 -0.21968983113765717 -0.14814749360084534 0.1387782245874405 0.9142476320266724 -0.8084903955459595 0.5568078756332397 -0.5656560063362122 0.2647002935409546 -0.7785592675209045 -1.2455781698226929 0.6415004730224609 -0.8581142425537109 -0.7241647243499756 0.3645690977573395 0.7278631925582886 0.158184215426445 -0.7332905530929565 0.2137729823589325 0.3162115514278412 -0.40093013644218445 -1.0729036331176758 0.9665617942810059 0.40526890754699707 0.4803544580936432 -0.27613452076911926 -0.6994826793670654 -0.5756497383117676 1.1230250597000122 1.7725950479507446 -1.6364483833312988 -0.8110798001289368 0.02268151193857193 0.31988635659217834 -1.0524091720581055 -0.19053778052330017 1.811668038368225 -0.6944507360458374 -1.0695637464523315 -0.18573234975337982 1.202049732208252 1.3987435102462769 0.5303545594215393 -0.2920401096343994 -0.18122372031211853 0.44249242544174194 -0.17585353553295135 0.6079996228218079 1.1200124025344849 0.4739806354045868 -0.011472461745142937 1.0582876205444336 -0.04446304589509964 -1.286617636680603 0.7092072367668152 -0.01894650235772133 1.0478473901748657 0.09064409881830215 -0.27056390047073364 0.14793390035629272 0.11019261181354523 -0.9492557644844055
